=== Run information ===

Scheme:weka.classifiers.trees.J48 -C 0.4 -M 2
Relation:     iphone_smallmatrix_labeled_8d-weka.filters.unsupervised.attribute.NumericToNominal-Rfirst-last-weka.filters.unsupervised.attribute.Remove-R4,11,15-16,20-21,25-26,30-31,35-36,40-41,45-46,50-51,57
Instances:    12973
Attributes:   40
              iphone
              samsunggalaxy
              sonyxperia
              htcphone
              ios
              googleandroid
              iphonecampos
              samsungcampos
              sonycampos
              htccampos
              iphonecamneg
              samsungcamneg
              htccamneg
              iphonecamunc
              samsungcamunc
              htccamunc
              iphonedispos
              samsungdispos
              htcdispos
              iphonedisneg
              samsungdisneg
              htcdisneg
              iphonedisunc
              samsungdisunc
              htcdisunc
              iphoneperpos
              samsungperpos
              htcperpos
              iphoneperneg
              samsungperneg
              htcperneg
              iphoneperunc
              samsungperunc
              htcperunc
              iosperpos
              googleperpos
              iosperneg
              googleperneg
              googleperunc
              iphonesentiment
Test mode:10-fold cross-validation

=== Classifier model (full training set) ===

J48 pruned tree
------------------

googleandroid = 0
|   samsunggalaxy = 0
|   |   htcphone = 0
|   |   |   ios = 0
|   |   |   |   iphonedisunc = 0
|   |   |   |   |   sonyxperia = 0
|   |   |   |   |   |   iphonedispos = 0: 5 (8159.0/2226.0)
|   |   |   |   |   |   iphonedispos = 1
|   |   |   |   |   |   |   iphonedisneg = 0
|   |   |   |   |   |   |   |   iphoneperpos = 0
|   |   |   |   |   |   |   |   |   iphone = 0: 3 (0.0)
|   |   |   |   |   |   |   |   |   iphone = 1
|   |   |   |   |   |   |   |   |   |   iphonecampos = 0
|   |   |   |   |   |   |   |   |   |   |   iphoneperunc = 0: 3 (131.0/3.0)
|   |   |   |   |   |   |   |   |   |   |   iphoneperunc = 1: 4 (4.0/2.0)
|   |   |   |   |   |   |   |   |   |   |   iphoneperunc = 2: 3 (0.0)
|   |   |   |   |   |   |   |   |   |   |   iphoneperunc = 3: 3 (0.0)
|   |   |   |   |   |   |   |   |   |   |   iphoneperunc = 4: 3 (0.0)
|   |   |   |   |   |   |   |   |   |   |   iphoneperunc = 5: 3 (0.0)
|   |   |   |   |   |   |   |   |   |   |   iphoneperunc = 6: 3 (0.0)
|   |   |   |   |   |   |   |   |   |   |   iphoneperunc = 7: 3 (0.0)
|   |   |   |   |   |   |   |   |   |   |   iphoneperunc = 8: 3 (0.0)
|   |   |   |   |   |   |   |   |   |   |   iphoneperunc = 9: 3 (0.0)
|   |   |   |   |   |   |   |   |   |   |   iphoneperunc = 10: 3 (0.0)
|   |   |   |   |   |   |   |   |   |   |   iphoneperunc = 11: 3 (0.0)
|   |   |   |   |   |   |   |   |   |   |   iphoneperunc = 18: 3 (0.0)
|   |   |   |   |   |   |   |   |   |   |   iphoneperunc = 19: 3 (0.0)
|   |   |   |   |   |   |   |   |   |   |   iphoneperunc = 25: 3 (0.0)
|   |   |   |   |   |   |   |   |   |   |   iphoneperunc = 31: 3 (0.0)
|   |   |   |   |   |   |   |   |   |   iphonecampos = 1: 5 (21.0/5.0)
|   |   |   |   |   |   |   |   |   |   iphonecampos = 2: 5 (3.0/1.0)
|   |   |   |   |   |   |   |   |   |   iphonecampos = 3: 3 (0.0)
|   |   |   |   |   |   |   |   |   |   iphonecampos = 4: 3 (0.0)
|   |   |   |   |   |   |   |   |   |   iphonecampos = 5: 5 (1.0)
|   |   |   |   |   |   |   |   |   |   iphonecampos = 6: 3 (0.0)
|   |   |   |   |   |   |   |   |   |   iphonecampos = 7: 3 (0.0)
|   |   |   |   |   |   |   |   |   |   iphonecampos = 8: 3 (0.0)
|   |   |   |   |   |   |   |   |   |   iphonecampos = 9: 3 (0.0)
|   |   |   |   |   |   |   |   |   |   iphonecampos = 10: 3 (0.0)
|   |   |   |   |   |   |   |   |   |   iphonecampos = 11: 3 (0.0)
|   |   |   |   |   |   |   |   |   |   iphonecampos = 12: 3 (0.0)
|   |   |   |   |   |   |   |   |   |   iphonecampos = 13: 3 (0.0)
|   |   |   |   |   |   |   |   |   |   iphonecampos = 14: 3 (0.0)
|   |   |   |   |   |   |   |   |   |   iphonecampos = 15: 3 (0.0)
|   |   |   |   |   |   |   |   |   |   iphonecampos = 16: 3 (0.0)
|   |   |   |   |   |   |   |   |   |   iphonecampos = 17: 3 (0.0)
|   |   |   |   |   |   |   |   |   |   iphonecampos = 18: 3 (0.0)
|   |   |   |   |   |   |   |   |   |   iphonecampos = 19: 3 (0.0)
|   |   |   |   |   |   |   |   |   |   iphonecampos = 20: 3 (0.0)
|   |   |   |   |   |   |   |   |   |   iphonecampos = 23: 3 (0.0)
|   |   |   |   |   |   |   |   |   |   iphonecampos = 24: 3 (0.0)
|   |   |   |   |   |   |   |   |   |   iphonecampos = 26: 3 (0.0)
|   |   |   |   |   |   |   |   |   |   iphonecampos = 29: 3 (0.0)
|   |   |   |   |   |   |   |   |   |   iphonecampos = 39: 3 (0.0)
|   |   |   |   |   |   |   |   |   |   iphonecampos = 71: 3 (0.0)
|   |   |   |   |   |   |   |   |   |   iphonecampos = 83: 3 (0.0)
|   |   |   |   |   |   |   |   |   |   iphonecampos = 95: 3 (0.0)
|   |   |   |   |   |   |   |   |   |   iphonecampos = 156: 3 (0.0)
|   |   |   |   |   |   |   |   |   iphone = 2: 5 (39.0/8.0)
|   |   |   |   |   |   |   |   |   iphone = 3: 5 (3.0)
|   |   |   |   |   |   |   |   |   iphone = 4: 5 (1.0)
|   |   |   |   |   |   |   |   |   iphone = 5: 0 (2.0/1.0)
|   |   |   |   |   |   |   |   |   iphone = 6: 5 (1.0)
|   |   |   |   |   |   |   |   |   iphone = 7: 3 (0.0)
|   |   |   |   |   |   |   |   |   iphone = 8: 3 (0.0)
|   |   |   |   |   |   |   |   |   iphone = 9: 2 (1.0)
|   |   |   |   |   |   |   |   |   iphone = 10: 3 (0.0)
|   |   |   |   |   |   |   |   |   iphone = 11: 3 (0.0)
|   |   |   |   |   |   |   |   |   iphone = 12: 3 (0.0)
|   |   |   |   |   |   |   |   |   iphone = 13: 3 (0.0)
|   |   |   |   |   |   |   |   |   iphone = 14: 3 (0.0)
|   |   |   |   |   |   |   |   |   iphone = 16: 5 (1.0)
|   |   |   |   |   |   |   |   |   iphone = 18: 3 (0.0)
|   |   |   |   |   |   |   |   |   iphone = 19: 3 (0.0)
|   |   |   |   |   |   |   |   |   iphone = 20: 5 (1.0)
|   |   |   |   |   |   |   |   |   iphone = 21: 3 (0.0)
|   |   |   |   |   |   |   |   |   iphone = 25: 3 (0.0)
|   |   |   |   |   |   |   |   |   iphone = 26: 3 (0.0)
|   |   |   |   |   |   |   |   |   iphone = 37: 3 (0.0)
|   |   |   |   |   |   |   |   |   iphone = 38: 3 (0.0)
|   |   |   |   |   |   |   |   |   iphone = 40: 3 (0.0)
|   |   |   |   |   |   |   |   |   iphone = 41: 3 (0.0)
|   |   |   |   |   |   |   |   |   iphone = 46: 3 (0.0)
|   |   |   |   |   |   |   |   iphoneperpos = 1: 5 (58.0/11.0)
|   |   |   |   |   |   |   |   iphoneperpos = 2: 5 (34.0/5.0)
|   |   |   |   |   |   |   |   iphoneperpos = 3: 5 (24.0/3.0)
|   |   |   |   |   |   |   |   iphoneperpos = 4: 5 (12.0/1.0)
|   |   |   |   |   |   |   |   iphoneperpos = 5: 5 (8.0/2.0)
|   |   |   |   |   |   |   |   iphoneperpos = 6: 5 (2.0)
|   |   |   |   |   |   |   |   iphoneperpos = 7: 5 (0.0)
|   |   |   |   |   |   |   |   iphoneperpos = 8: 5 (0.0)
|   |   |   |   |   |   |   |   iphoneperpos = 9: 5 (1.0)
|   |   |   |   |   |   |   |   iphoneperpos = 10: 5 (0.0)
|   |   |   |   |   |   |   |   iphoneperpos = 11: 0 (1.0)
|   |   |   |   |   |   |   |   iphoneperpos = 12: 5 (0.0)
|   |   |   |   |   |   |   |   iphoneperpos = 13: 5 (0.0)
|   |   |   |   |   |   |   |   iphoneperpos = 14: 5 (0.0)
|   |   |   |   |   |   |   |   iphoneperpos = 15: 5 (0.0)
|   |   |   |   |   |   |   |   iphoneperpos = 16: 5 (0.0)
|   |   |   |   |   |   |   |   iphoneperpos = 17: 5 (0.0)
|   |   |   |   |   |   |   |   iphoneperpos = 18: 5 (0.0)
|   |   |   |   |   |   |   |   iphoneperpos = 21: 5 (0.0)
|   |   |   |   |   |   |   |   iphoneperpos = 24: 5 (0.0)
|   |   |   |   |   |   |   |   iphoneperpos = 27: 5 (0.0)
|   |   |   |   |   |   |   |   iphoneperpos = 31: 5 (0.0)
|   |   |   |   |   |   |   |   iphoneperpos = 32: 5 (0.0)
|   |   |   |   |   |   |   |   iphoneperpos = 46: 5 (0.0)
|   |   |   |   |   |   |   iphonedisneg = 1: 5 (290.0/58.0)
|   |   |   |   |   |   |   iphonedisneg = 2: 5 (19.0/3.0)
|   |   |   |   |   |   |   iphonedisneg = 3: 5 (5.0/1.0)
|   |   |   |   |   |   |   iphonedisneg = 4: 0 (1.0)
|   |   |   |   |   |   |   iphonedisneg = 5: 5 (0.0)
|   |   |   |   |   |   |   iphonedisneg = 6: 5 (1.0)
|   |   |   |   |   |   |   iphonedisneg = 7: 5 (0.0)
|   |   |   |   |   |   |   iphonedisneg = 8: 5 (0.0)
|   |   |   |   |   |   |   iphonedisneg = 9: 5 (0.0)
|   |   |   |   |   |   |   iphonedisneg = 10: 5 (0.0)
|   |   |   |   |   |   |   iphonedisneg = 11: 5 (0.0)
|   |   |   |   |   |   |   iphonedisneg = 12: 5 (0.0)
|   |   |   |   |   |   |   iphonedisneg = 13: 5 (0.0)
|   |   |   |   |   |   |   iphonedisneg = 14: 5 (0.0)
|   |   |   |   |   |   |   iphonedisneg = 15: 5 (0.0)
|   |   |   |   |   |   |   iphonedisneg = 17: 5 (1.0)
|   |   |   |   |   |   |   iphonedisneg = 18: 5 (0.0)
|   |   |   |   |   |   |   iphonedisneg = 28: 5 (0.0)
|   |   |   |   |   |   |   iphonedisneg = 31: 5 (0.0)
|   |   |   |   |   |   |   iphonedisneg = 44: 5 (0.0)
|   |   |   |   |   |   |   iphonedisneg = 48: 5 (0.0)
|   |   |   |   |   |   |   iphonedisneg = 56: 5 (0.0)
|   |   |   |   |   |   |   iphonedisneg = 120: 5 (0.0)
|   |   |   |   |   |   iphonedispos = 2
|   |   |   |   |   |   |   iphoneperpos = 0
|   |   |   |   |   |   |   |   iphonecampos = 0
|   |   |   |   |   |   |   |   |   iphone = 0: 3 (0.0)
|   |   |   |   |   |   |   |   |   iphone = 1
|   |   |   |   |   |   |   |   |   |   iphonedisneg = 0: 3 (32.0)
|   |   |   |   |   |   |   |   |   |   iphonedisneg = 1: 5 (7.0/4.0)
|   |   |   |   |   |   |   |   |   |   iphonedisneg = 2: 5 (5.0/2.0)
|   |   |   |   |   |   |   |   |   |   iphonedisneg = 3: 5 (1.0)
|   |   |   |   |   |   |   |   |   |   iphonedisneg = 4: 4 (1.0)
|   |   |   |   |   |   |   |   |   |   iphonedisneg = 5: 3 (0.0)
|   |   |   |   |   |   |   |   |   |   iphonedisneg = 6: 3 (0.0)
|   |   |   |   |   |   |   |   |   |   iphonedisneg = 7: 3 (0.0)
|   |   |   |   |   |   |   |   |   |   iphonedisneg = 8: 3 (0.0)
|   |   |   |   |   |   |   |   |   |   iphonedisneg = 9: 3 (0.0)
|   |   |   |   |   |   |   |   |   |   iphonedisneg = 10: 3 (0.0)
|   |   |   |   |   |   |   |   |   |   iphonedisneg = 11: 3 (0.0)
|   |   |   |   |   |   |   |   |   |   iphonedisneg = 12: 3 (0.0)
|   |   |   |   |   |   |   |   |   |   iphonedisneg = 13: 3 (0.0)
|   |   |   |   |   |   |   |   |   |   iphonedisneg = 14: 3 (0.0)
|   |   |   |   |   |   |   |   |   |   iphonedisneg = 15: 3 (0.0)
|   |   |   |   |   |   |   |   |   |   iphonedisneg = 17: 3 (0.0)
|   |   |   |   |   |   |   |   |   |   iphonedisneg = 18: 3 (0.0)
|   |   |   |   |   |   |   |   |   |   iphonedisneg = 28: 3 (0.0)
|   |   |   |   |   |   |   |   |   |   iphonedisneg = 31: 3 (0.0)
|   |   |   |   |   |   |   |   |   |   iphonedisneg = 44: 3 (0.0)
|   |   |   |   |   |   |   |   |   |   iphonedisneg = 48: 3 (0.0)
|   |   |   |   |   |   |   |   |   |   iphonedisneg = 56: 3 (0.0)
|   |   |   |   |   |   |   |   |   |   iphonedisneg = 120: 3 (0.0)
|   |   |   |   |   |   |   |   |   iphone = 2: 5 (14.0/5.0)
|   |   |   |   |   |   |   |   |   iphone = 3: 0 (2.0/1.0)
|   |   |   |   |   |   |   |   |   iphone = 4: 5 (1.0)
|   |   |   |   |   |   |   |   |   iphone = 5: 3 (0.0)
|   |   |   |   |   |   |   |   |   iphone = 6: 3 (0.0)
|   |   |   |   |   |   |   |   |   iphone = 7: 3 (0.0)
|   |   |   |   |   |   |   |   |   iphone = 8: 3 (0.0)
|   |   |   |   |   |   |   |   |   iphone = 9: 3 (0.0)
|   |   |   |   |   |   |   |   |   iphone = 10: 3 (0.0)
|   |   |   |   |   |   |   |   |   iphone = 11: 3 (0.0)
|   |   |   |   |   |   |   |   |   iphone = 12: 3 (0.0)
|   |   |   |   |   |   |   |   |   iphone = 13: 3 (0.0)
|   |   |   |   |   |   |   |   |   iphone = 14: 3 (0.0)
|   |   |   |   |   |   |   |   |   iphone = 16: 3 (0.0)
|   |   |   |   |   |   |   |   |   iphone = 18: 3 (0.0)
|   |   |   |   |   |   |   |   |   iphone = 19: 3 (0.0)
|   |   |   |   |   |   |   |   |   iphone = 20: 3 (0.0)
|   |   |   |   |   |   |   |   |   iphone = 21: 3 (0.0)
|   |   |   |   |   |   |   |   |   iphone = 25: 3 (0.0)
|   |   |   |   |   |   |   |   |   iphone = 26: 3 (0.0)
|   |   |   |   |   |   |   |   |   iphone = 37: 3 (0.0)
|   |   |   |   |   |   |   |   |   iphone = 38: 3 (0.0)
|   |   |   |   |   |   |   |   |   iphone = 40: 3 (0.0)
|   |   |   |   |   |   |   |   |   iphone = 41: 3 (0.0)
|   |   |   |   |   |   |   |   |   iphone = 46: 3 (0.0)
|   |   |   |   |   |   |   |   iphonecampos = 1: 5 (6.0/2.0)
|   |   |   |   |   |   |   |   iphonecampos = 2: 4 (2.0)
|   |   |   |   |   |   |   |   iphonecampos = 3: 4 (1.0)
|   |   |   |   |   |   |   |   iphonecampos = 4: 5 (1.0)
|   |   |   |   |   |   |   |   iphonecampos = 5: 3 (0.0)
|   |   |   |   |   |   |   |   iphonecampos = 6: 3 (0.0)
|   |   |   |   |   |   |   |   iphonecampos = 7: 3 (0.0)
|   |   |   |   |   |   |   |   iphonecampos = 8: 3 (0.0)
|   |   |   |   |   |   |   |   iphonecampos = 9: 3 (0.0)
|   |   |   |   |   |   |   |   iphonecampos = 10: 3 (0.0)
|   |   |   |   |   |   |   |   iphonecampos = 11: 3 (0.0)
|   |   |   |   |   |   |   |   iphonecampos = 12: 3 (0.0)
|   |   |   |   |   |   |   |   iphonecampos = 13: 3 (0.0)
|   |   |   |   |   |   |   |   iphonecampos = 14: 3 (0.0)
|   |   |   |   |   |   |   |   iphonecampos = 15: 3 (0.0)
|   |   |   |   |   |   |   |   iphonecampos = 16: 3 (0.0)
|   |   |   |   |   |   |   |   iphonecampos = 17: 3 (0.0)
|   |   |   |   |   |   |   |   iphonecampos = 18: 3 (0.0)
|   |   |   |   |   |   |   |   iphonecampos = 19: 3 (0.0)
|   |   |   |   |   |   |   |   iphonecampos = 20: 3 (0.0)
|   |   |   |   |   |   |   |   iphonecampos = 23: 3 (0.0)
|   |   |   |   |   |   |   |   iphonecampos = 24: 3 (0.0)
|   |   |   |   |   |   |   |   iphonecampos = 26: 3 (0.0)
|   |   |   |   |   |   |   |   iphonecampos = 29: 3 (0.0)
|   |   |   |   |   |   |   |   iphonecampos = 39: 3 (0.0)
|   |   |   |   |   |   |   |   iphonecampos = 71: 3 (0.0)
|   |   |   |   |   |   |   |   iphonecampos = 83: 3 (0.0)
|   |   |   |   |   |   |   |   iphonecampos = 95: 3 (0.0)
|   |   |   |   |   |   |   |   iphonecampos = 156: 3 (0.0)
|   |   |   |   |   |   |   iphoneperpos = 1: 5 (29.0/4.0)
|   |   |   |   |   |   |   iphoneperpos = 2
|   |   |   |   |   |   |   |   iphonecamneg = 0: 5 (19.0/4.0)
|   |   |   |   |   |   |   |   iphonecamneg = 1: 5 (1.0)
|   |   |   |   |   |   |   |   iphonecamneg = 2: 0 (4.0/2.0)
|   |   |   |   |   |   |   |   iphonecamneg = 3: 5 (0.0)
|   |   |   |   |   |   |   |   iphonecamneg = 4: 5 (0.0)
|   |   |   |   |   |   |   |   iphonecamneg = 5: 5 (0.0)
|   |   |   |   |   |   |   |   iphonecamneg = 6: 5 (0.0)
|   |   |   |   |   |   |   |   iphonecamneg = 7: 5 (0.0)
|   |   |   |   |   |   |   |   iphonecamneg = 8: 5 (0.0)
|   |   |   |   |   |   |   |   iphonecamneg = 9: 5 (0.0)
|   |   |   |   |   |   |   |   iphonecamneg = 10: 5 (0.0)
|   |   |   |   |   |   |   |   iphonecamneg = 11: 5 (0.0)
|   |   |   |   |   |   |   |   iphonecamneg = 15: 5 (0.0)
|   |   |   |   |   |   |   |   iphonecamneg = 18: 5 (0.0)
|   |   |   |   |   |   |   |   iphonecamneg = 19: 5 (0.0)
|   |   |   |   |   |   |   |   iphonecamneg = 20: 5 (0.0)
|   |   |   |   |   |   |   |   iphonecamneg = 31: 5 (0.0)
|   |   |   |   |   |   |   iphoneperpos = 3: 5 (11.0/3.0)
|   |   |   |   |   |   |   iphoneperpos = 4: 5 (14.0/2.0)
|   |   |   |   |   |   |   iphoneperpos = 5
|   |   |   |   |   |   |   |   iphonecamneg = 0: 5 (4.0/1.0)
|   |   |   |   |   |   |   |   iphonecamneg = 1: 0 (1.0)
|   |   |   |   |   |   |   |   iphonecamneg = 2: 0 (2.0)
|   |   |   |   |   |   |   |   iphonecamneg = 3: 0 (0.0)
|   |   |   |   |   |   |   |   iphonecamneg = 4: 0 (0.0)
|   |   |   |   |   |   |   |   iphonecamneg = 5: 0 (0.0)
|   |   |   |   |   |   |   |   iphonecamneg = 6: 0 (0.0)
|   |   |   |   |   |   |   |   iphonecamneg = 7: 0 (0.0)
|   |   |   |   |   |   |   |   iphonecamneg = 8: 0 (0.0)
|   |   |   |   |   |   |   |   iphonecamneg = 9: 0 (0.0)
|   |   |   |   |   |   |   |   iphonecamneg = 10: 0 (0.0)
|   |   |   |   |   |   |   |   iphonecamneg = 11: 0 (0.0)
|   |   |   |   |   |   |   |   iphonecamneg = 15: 0 (0.0)
|   |   |   |   |   |   |   |   iphonecamneg = 18: 0 (0.0)
|   |   |   |   |   |   |   |   iphonecamneg = 19: 0 (0.0)
|   |   |   |   |   |   |   |   iphonecamneg = 20: 0 (0.0)
|   |   |   |   |   |   |   |   iphonecamneg = 31: 0 (0.0)
|   |   |   |   |   |   |   iphoneperpos = 6: 5 (6.0/2.0)
|   |   |   |   |   |   |   iphoneperpos = 7: 5 (1.0)
|   |   |   |   |   |   |   iphoneperpos = 8: 5 (0.0)
|   |   |   |   |   |   |   iphoneperpos = 9: 5 (0.0)
|   |   |   |   |   |   |   iphoneperpos = 10: 5 (0.0)
|   |   |   |   |   |   |   iphoneperpos = 11: 5 (0.0)
|   |   |   |   |   |   |   iphoneperpos = 12: 5 (0.0)
|   |   |   |   |   |   |   iphoneperpos = 13: 5 (0.0)
|   |   |   |   |   |   |   iphoneperpos = 14: 5 (0.0)
|   |   |   |   |   |   |   iphoneperpos = 15: 5 (0.0)
|   |   |   |   |   |   |   iphoneperpos = 16: 5 (0.0)
|   |   |   |   |   |   |   iphoneperpos = 17: 5 (0.0)
|   |   |   |   |   |   |   iphoneperpos = 18: 5 (0.0)
|   |   |   |   |   |   |   iphoneperpos = 21: 5 (0.0)
|   |   |   |   |   |   |   iphoneperpos = 24: 5 (0.0)
|   |   |   |   |   |   |   iphoneperpos = 27: 5 (0.0)
|   |   |   |   |   |   |   iphoneperpos = 31: 5 (0.0)
|   |   |   |   |   |   |   iphoneperpos = 32: 5 (0.0)
|   |   |   |   |   |   |   iphoneperpos = 46: 5 (0.0)
|   |   |   |   |   |   iphonedispos = 3: 5 (37.0/6.0)
|   |   |   |   |   |   iphonedispos = 4: 5 (14.0/5.0)
|   |   |   |   |   |   iphonedispos = 5: 5 (7.0/1.0)
|   |   |   |   |   |   iphonedispos = 6: 5 (3.0/1.0)
|   |   |   |   |   |   iphonedispos = 7: 0 (1.0)
|   |   |   |   |   |   iphonedispos = 8: 5 (4.0/1.0)
|   |   |   |   |   |   iphonedispos = 9: 1 (2.0/1.0)
|   |   |   |   |   |   iphonedispos = 10: 5 (0.0)
|   |   |   |   |   |   iphonedispos = 11: 5 (0.0)
|   |   |   |   |   |   iphonedispos = 12: 5 (0.0)
|   |   |   |   |   |   iphonedispos = 13: 5 (0.0)
|   |   |   |   |   |   iphonedispos = 14: 5 (0.0)
|   |   |   |   |   |   iphonedispos = 15: 5 (0.0)
|   |   |   |   |   |   iphonedispos = 16: 5 (0.0)
|   |   |   |   |   |   iphonedispos = 17: 5 (0.0)
|   |   |   |   |   |   iphonedispos = 18: 5 (0.0)
|   |   |   |   |   |   iphonedispos = 19: 5 (0.0)
|   |   |   |   |   |   iphonedispos = 20: 5 (0.0)
|   |   |   |   |   |   iphonedispos = 22: 5 (0.0)
|   |   |   |   |   |   iphonedispos = 24: 5 (0.0)
|   |   |   |   |   |   iphonedispos = 25: 5 (0.0)
|   |   |   |   |   |   iphonedispos = 27: 5 (0.0)
|   |   |   |   |   |   iphonedispos = 28: 5 (0.0)
|   |   |   |   |   |   iphonedispos = 29: 5 (0.0)
|   |   |   |   |   |   iphonedispos = 31: 5 (0.0)
|   |   |   |   |   |   iphonedispos = 35: 5 (0.0)
|   |   |   |   |   |   iphonedispos = 49: 5 (0.0)
|   |   |   |   |   |   iphonedispos = 51: 5 (0.0)
|   |   |   |   |   |   iphonedispos = 66: 5 (0.0)
|   |   |   |   |   sonyxperia = 1: 0 (40.0/2.0)
|   |   |   |   |   sonyxperia = 2: 0 (4.0)
|   |   |   |   |   sonyxperia = 3: 5 (0.0)
|   |   |   |   |   sonyxperia = 8: 5 (0.0)
|   |   |   |   iphonedisunc = 1
|   |   |   |   |   iphoneperneg = 0
|   |   |   |   |   |   iphoneperunc = 0
|   |   |   |   |   |   |   iphonedisneg = 0
|   |   |   |   |   |   |   |   iphoneperpos = 0
|   |   |   |   |   |   |   |   |   iphone = 0: 3 (0.0)
|   |   |   |   |   |   |   |   |   iphone = 1
|   |   |   |   |   |   |   |   |   |   iphonecamneg = 0: 3 (128.0/1.0)
|   |   |   |   |   |   |   |   |   |   iphonecamneg = 1: 3 (4.0/1.0)
|   |   |   |   |   |   |   |   |   |   iphonecamneg = 2: 4 (1.0)
|   |   |   |   |   |   |   |   |   |   iphonecamneg = 3: 3 (0.0)
|   |   |   |   |   |   |   |   |   |   iphonecamneg = 4: 5 (1.0)
|   |   |   |   |   |   |   |   |   |   iphonecamneg = 5: 3 (0.0)
|   |   |   |   |   |   |   |   |   |   iphonecamneg = 6: 3 (0.0)
|   |   |   |   |   |   |   |   |   |   iphonecamneg = 7: 3 (0.0)
|   |   |   |   |   |   |   |   |   |   iphonecamneg = 8: 3 (0.0)
|   |   |   |   |   |   |   |   |   |   iphonecamneg = 9: 3 (0.0)
|   |   |   |   |   |   |   |   |   |   iphonecamneg = 10: 3 (0.0)
|   |   |   |   |   |   |   |   |   |   iphonecamneg = 11: 3 (0.0)
|   |   |   |   |   |   |   |   |   |   iphonecamneg = 15: 3 (0.0)
|   |   |   |   |   |   |   |   |   |   iphonecamneg = 18: 3 (0.0)
|   |   |   |   |   |   |   |   |   |   iphonecamneg = 19: 3 (0.0)
|   |   |   |   |   |   |   |   |   |   iphonecamneg = 20: 3 (0.0)
|   |   |   |   |   |   |   |   |   |   iphonecamneg = 31: 3 (0.0)
|   |   |   |   |   |   |   |   |   iphone = 2: 3 (28.0/3.0)
|   |   |   |   |   |   |   |   |   iphone = 3
|   |   |   |   |   |   |   |   |   |   iphonedispos = 0: 5 (5.0/1.0)
|   |   |   |   |   |   |   |   |   |   iphonedispos = 1: 3 (3.0)
|   |   |   |   |   |   |   |   |   |   iphonedispos = 2: 4 (1.0)
|   |   |   |   |   |   |   |   |   |   iphonedispos = 3: 5 (1.0)
|   |   |   |   |   |   |   |   |   |   iphonedispos = 4: 5 (1.0)
|   |   |   |   |   |   |   |   |   |   iphonedispos = 5: 5 (0.0)
|   |   |   |   |   |   |   |   |   |   iphonedispos = 6: 5 (0.0)
|   |   |   |   |   |   |   |   |   |   iphonedispos = 7: 5 (0.0)
|   |   |   |   |   |   |   |   |   |   iphonedispos = 8: 5 (0.0)
|   |   |   |   |   |   |   |   |   |   iphonedispos = 9: 5 (0.0)
|   |   |   |   |   |   |   |   |   |   iphonedispos = 10: 5 (0.0)
|   |   |   |   |   |   |   |   |   |   iphonedispos = 11: 5 (0.0)
|   |   |   |   |   |   |   |   |   |   iphonedispos = 12: 5 (0.0)
|   |   |   |   |   |   |   |   |   |   iphonedispos = 13: 5 (0.0)
|   |   |   |   |   |   |   |   |   |   iphonedispos = 14: 5 (0.0)
|   |   |   |   |   |   |   |   |   |   iphonedispos = 15: 5 (0.0)
|   |   |   |   |   |   |   |   |   |   iphonedispos = 16: 5 (0.0)
|   |   |   |   |   |   |   |   |   |   iphonedispos = 17: 5 (0.0)
|   |   |   |   |   |   |   |   |   |   iphonedispos = 18: 5 (0.0)
|   |   |   |   |   |   |   |   |   |   iphonedispos = 19: 5 (0.0)
|   |   |   |   |   |   |   |   |   |   iphonedispos = 20: 5 (0.0)
|   |   |   |   |   |   |   |   |   |   iphonedispos = 22: 5 (0.0)
|   |   |   |   |   |   |   |   |   |   iphonedispos = 24: 5 (0.0)
|   |   |   |   |   |   |   |   |   |   iphonedispos = 25: 5 (0.0)
|   |   |   |   |   |   |   |   |   |   iphonedispos = 27: 5 (0.0)
|   |   |   |   |   |   |   |   |   |   iphonedispos = 28: 5 (0.0)
|   |   |   |   |   |   |   |   |   |   iphonedispos = 29: 5 (0.0)
|   |   |   |   |   |   |   |   |   |   iphonedispos = 31: 5 (0.0)
|   |   |   |   |   |   |   |   |   |   iphonedispos = 35: 5 (0.0)
|   |   |   |   |   |   |   |   |   |   iphonedispos = 49: 5 (0.0)
|   |   |   |   |   |   |   |   |   |   iphonedispos = 51: 5 (0.0)
|   |   |   |   |   |   |   |   |   |   iphonedispos = 66: 5 (0.0)
|   |   |   |   |   |   |   |   |   iphone = 4: 5 (6.0/2.0)
|   |   |   |   |   |   |   |   |   iphone = 5: 3 (0.0)
|   |   |   |   |   |   |   |   |   iphone = 6: 5 (1.0)
|   |   |   |   |   |   |   |   |   iphone = 7: 5 (1.0)
|   |   |   |   |   |   |   |   |   iphone = 8: 3 (0.0)
|   |   |   |   |   |   |   |   |   iphone = 9: 3 (0.0)
|   |   |   |   |   |   |   |   |   iphone = 10: 3 (0.0)
|   |   |   |   |   |   |   |   |   iphone = 11: 3 (0.0)
|   |   |   |   |   |   |   |   |   iphone = 12: 3 (0.0)
|   |   |   |   |   |   |   |   |   iphone = 13: 3 (0.0)
|   |   |   |   |   |   |   |   |   iphone = 14: 3 (0.0)
|   |   |   |   |   |   |   |   |   iphone = 16: 3 (0.0)
|   |   |   |   |   |   |   |   |   iphone = 18: 3 (0.0)
|   |   |   |   |   |   |   |   |   iphone = 19: 3 (0.0)
|   |   |   |   |   |   |   |   |   iphone = 20: 3 (0.0)
|   |   |   |   |   |   |   |   |   iphone = 21: 3 (0.0)
|   |   |   |   |   |   |   |   |   iphone = 25: 3 (0.0)
|   |   |   |   |   |   |   |   |   iphone = 26: 3 (0.0)
|   |   |   |   |   |   |   |   |   iphone = 37: 3 (0.0)
|   |   |   |   |   |   |   |   |   iphone = 38: 3 (0.0)
|   |   |   |   |   |   |   |   |   iphone = 40: 3 (0.0)
|   |   |   |   |   |   |   |   |   iphone = 41: 3 (0.0)
|   |   |   |   |   |   |   |   |   iphone = 46: 3 (0.0)
|   |   |   |   |   |   |   |   iphoneperpos = 1
|   |   |   |   |   |   |   |   |   iphonedispos = 0: 5 (7.0)
|   |   |   |   |   |   |   |   |   iphonedispos = 1: 3 (4.0)
|   |   |   |   |   |   |   |   |   iphonedispos = 2: 3 (4.0)
|   |   |   |   |   |   |   |   |   iphonedispos = 3: 5 (1.0)
|   |   |   |   |   |   |   |   |   iphonedispos = 4: 5 (1.0)
|   |   |   |   |   |   |   |   |   iphonedispos = 5: 5 (1.0)
|   |   |   |   |   |   |   |   |   iphonedispos = 6: 5 (0.0)
|   |   |   |   |   |   |   |   |   iphonedispos = 7: 5 (0.0)
|   |   |   |   |   |   |   |   |   iphonedispos = 8: 5 (0.0)
|   |   |   |   |   |   |   |   |   iphonedispos = 9: 5 (0.0)
|   |   |   |   |   |   |   |   |   iphonedispos = 10: 5 (0.0)
|   |   |   |   |   |   |   |   |   iphonedispos = 11: 5 (0.0)
|   |   |   |   |   |   |   |   |   iphonedispos = 12: 5 (0.0)
|   |   |   |   |   |   |   |   |   iphonedispos = 13: 5 (0.0)
|   |   |   |   |   |   |   |   |   iphonedispos = 14: 5 (0.0)
|   |   |   |   |   |   |   |   |   iphonedispos = 15: 5 (0.0)
|   |   |   |   |   |   |   |   |   iphonedispos = 16: 5 (0.0)
|   |   |   |   |   |   |   |   |   iphonedispos = 17: 5 (0.0)
|   |   |   |   |   |   |   |   |   iphonedispos = 18: 5 (0.0)
|   |   |   |   |   |   |   |   |   iphonedispos = 19: 5 (0.0)
|   |   |   |   |   |   |   |   |   iphonedispos = 20: 5 (0.0)
|   |   |   |   |   |   |   |   |   iphonedispos = 22: 5 (0.0)
|   |   |   |   |   |   |   |   |   iphonedispos = 24: 5 (0.0)
|   |   |   |   |   |   |   |   |   iphonedispos = 25: 5 (0.0)
|   |   |   |   |   |   |   |   |   iphonedispos = 27: 5 (0.0)
|   |   |   |   |   |   |   |   |   iphonedispos = 28: 5 (0.0)
|   |   |   |   |   |   |   |   |   iphonedispos = 29: 5 (0.0)
|   |   |   |   |   |   |   |   |   iphonedispos = 31: 5 (0.0)
|   |   |   |   |   |   |   |   |   iphonedispos = 35: 5 (0.0)
|   |   |   |   |   |   |   |   |   iphonedispos = 49: 5 (0.0)
|   |   |   |   |   |   |   |   |   iphonedispos = 51: 5 (0.0)
|   |   |   |   |   |   |   |   |   iphonedispos = 66: 5 (0.0)
|   |   |   |   |   |   |   |   iphoneperpos = 2: 5 (4.0)
|   |   |   |   |   |   |   |   iphoneperpos = 3: 5 (1.0)
|   |   |   |   |   |   |   |   iphoneperpos = 4: 5 (1.0)
|   |   |   |   |   |   |   |   iphoneperpos = 5: 3 (0.0)
|   |   |   |   |   |   |   |   iphoneperpos = 6: 3 (0.0)
|   |   |   |   |   |   |   |   iphoneperpos = 7: 3 (0.0)
|   |   |   |   |   |   |   |   iphoneperpos = 8: 0 (1.0)
|   |   |   |   |   |   |   |   iphoneperpos = 9: 3 (0.0)
|   |   |   |   |   |   |   |   iphoneperpos = 10: 3 (0.0)
|   |   |   |   |   |   |   |   iphoneperpos = 11: 3 (0.0)
|   |   |   |   |   |   |   |   iphoneperpos = 12: 3 (0.0)
|   |   |   |   |   |   |   |   iphoneperpos = 13: 3 (0.0)
|   |   |   |   |   |   |   |   iphoneperpos = 14: 3 (0.0)
|   |   |   |   |   |   |   |   iphoneperpos = 15: 3 (0.0)
|   |   |   |   |   |   |   |   iphoneperpos = 16: 3 (0.0)
|   |   |   |   |   |   |   |   iphoneperpos = 17: 3 (0.0)
|   |   |   |   |   |   |   |   iphoneperpos = 18: 3 (0.0)
|   |   |   |   |   |   |   |   iphoneperpos = 21: 3 (0.0)
|   |   |   |   |   |   |   |   iphoneperpos = 24: 3 (0.0)
|   |   |   |   |   |   |   |   iphoneperpos = 27: 3 (0.0)
|   |   |   |   |   |   |   |   iphoneperpos = 31: 3 (0.0)
|   |   |   |   |   |   |   |   iphoneperpos = 32: 3 (0.0)
|   |   |   |   |   |   |   |   iphoneperpos = 46: 3 (0.0)
|   |   |   |   |   |   |   iphonedisneg = 1
|   |   |   |   |   |   |   |   iphonedispos = 0
|   |   |   |   |   |   |   |   |   iphonecamneg = 0: 5 (28.0/7.0)
|   |   |   |   |   |   |   |   |   iphonecamneg = 1: 2 (3.0/1.0)
|   |   |   |   |   |   |   |   |   iphonecamneg = 2: 5 (0.0)
|   |   |   |   |   |   |   |   |   iphonecamneg = 3: 5 (0.0)
|   |   |   |   |   |   |   |   |   iphonecamneg = 4: 5 (0.0)
|   |   |   |   |   |   |   |   |   iphonecamneg = 5: 5 (0.0)
|   |   |   |   |   |   |   |   |   iphonecamneg = 6: 5 (0.0)
|   |   |   |   |   |   |   |   |   iphonecamneg = 7: 5 (0.0)
|   |   |   |   |   |   |   |   |   iphonecamneg = 8: 5 (0.0)
|   |   |   |   |   |   |   |   |   iphonecamneg = 9: 5 (0.0)
|   |   |   |   |   |   |   |   |   iphonecamneg = 10: 5 (0.0)
|   |   |   |   |   |   |   |   |   iphonecamneg = 11: 5 (0.0)
|   |   |   |   |   |   |   |   |   iphonecamneg = 15: 5 (0.0)
|   |   |   |   |   |   |   |   |   iphonecamneg = 18: 5 (0.0)
|   |   |   |   |   |   |   |   |   iphonecamneg = 19: 5 (0.0)
|   |   |   |   |   |   |   |   |   iphonecamneg = 20: 5 (0.0)
|   |   |   |   |   |   |   |   |   iphonecamneg = 31: 5 (0.0)
|   |   |   |   |   |   |   |   iphonedispos = 1
|   |   |   |   |   |   |   |   |   iphonecampos = 0
|   |   |   |   |   |   |   |   |   |   iphone = 0: 3 (0.0)
|   |   |   |   |   |   |   |   |   |   iphone = 1: 3 (33.0/1.0)
|   |   |   |   |   |   |   |   |   |   iphone = 2: 5 (9.0)
|   |   |   |   |   |   |   |   |   |   iphone = 3: 3 (3.0/2.0)
|   |   |   |   |   |   |   |   |   |   iphone = 4: 3 (0.0)
|   |   |   |   |   |   |   |   |   |   iphone = 5: 5 (1.0)
|   |   |   |   |   |   |   |   |   |   iphone = 6: 3 (0.0)
|   |   |   |   |   |   |   |   |   |   iphone = 7: 3 (0.0)
|   |   |   |   |   |   |   |   |   |   iphone = 8: 3 (0.0)
|   |   |   |   |   |   |   |   |   |   iphone = 9: 3 (0.0)
|   |   |   |   |   |   |   |   |   |   iphone = 10: 3 (0.0)
|   |   |   |   |   |   |   |   |   |   iphone = 11: 3 (0.0)
|   |   |   |   |   |   |   |   |   |   iphone = 12: 3 (0.0)
|   |   |   |   |   |   |   |   |   |   iphone = 13: 3 (0.0)
|   |   |   |   |   |   |   |   |   |   iphone = 14: 3 (0.0)
|   |   |   |   |   |   |   |   |   |   iphone = 16: 3 (0.0)
|   |   |   |   |   |   |   |   |   |   iphone = 18: 3 (0.0)
|   |   |   |   |   |   |   |   |   |   iphone = 19: 3 (0.0)
|   |   |   |   |   |   |   |   |   |   iphone = 20: 3 (0.0)
|   |   |   |   |   |   |   |   |   |   iphone = 21: 3 (0.0)
|   |   |   |   |   |   |   |   |   |   iphone = 25: 3 (0.0)
|   |   |   |   |   |   |   |   |   |   iphone = 26: 3 (0.0)
|   |   |   |   |   |   |   |   |   |   iphone = 37: 3 (0.0)
|   |   |   |   |   |   |   |   |   |   iphone = 38: 3 (0.0)
|   |   |   |   |   |   |   |   |   |   iphone = 40: 3 (0.0)
|   |   |   |   |   |   |   |   |   |   iphone = 41: 3 (0.0)
|   |   |   |   |   |   |   |   |   |   iphone = 46: 3 (0.0)
|   |   |   |   |   |   |   |   |   iphonecampos = 1
|   |   |   |   |   |   |   |   |   |   iphonecamneg = 0: 3 (2.0)
|   |   |   |   |   |   |   |   |   |   iphonecamneg = 1: 4 (2.0)
|   |   |   |   |   |   |   |   |   |   iphonecamneg = 2: 3 (0.0)
|   |   |   |   |   |   |   |   |   |   iphonecamneg = 3: 3 (0.0)
|   |   |   |   |   |   |   |   |   |   iphonecamneg = 4: 3 (0.0)
|   |   |   |   |   |   |   |   |   |   iphonecamneg = 5: 3 (0.0)
|   |   |   |   |   |   |   |   |   |   iphonecamneg = 6: 3 (0.0)
|   |   |   |   |   |   |   |   |   |   iphonecamneg = 7: 3 (0.0)
|   |   |   |   |   |   |   |   |   |   iphonecamneg = 8: 3 (0.0)
|   |   |   |   |   |   |   |   |   |   iphonecamneg = 9: 3 (0.0)
|   |   |   |   |   |   |   |   |   |   iphonecamneg = 10: 3 (0.0)
|   |   |   |   |   |   |   |   |   |   iphonecamneg = 11: 3 (0.0)
|   |   |   |   |   |   |   |   |   |   iphonecamneg = 15: 3 (0.0)
|   |   |   |   |   |   |   |   |   |   iphonecamneg = 18: 3 (0.0)
|   |   |   |   |   |   |   |   |   |   iphonecamneg = 19: 3 (0.0)
|   |   |   |   |   |   |   |   |   |   iphonecamneg = 20: 3 (0.0)
|   |   |   |   |   |   |   |   |   |   iphonecamneg = 31: 3 (0.0)
|   |   |   |   |   |   |   |   |   iphonecampos = 2: 4 (2.0)
|   |   |   |   |   |   |   |   |   iphonecampos = 3: 5 (3.0/1.0)
|   |   |   |   |   |   |   |   |   iphonecampos = 4: 3 (0.0)
|   |   |   |   |   |   |   |   |   iphonecampos = 5: 3 (0.0)
|   |   |   |   |   |   |   |   |   iphonecampos = 6: 3 (0.0)
|   |   |   |   |   |   |   |   |   iphonecampos = 7: 3 (0.0)
|   |   |   |   |   |   |   |   |   iphonecampos = 8: 3 (0.0)
|   |   |   |   |   |   |   |   |   iphonecampos = 9: 3 (0.0)
|   |   |   |   |   |   |   |   |   iphonecampos = 10: 3 (0.0)
|   |   |   |   |   |   |   |   |   iphonecampos = 11: 3 (0.0)
|   |   |   |   |   |   |   |   |   iphonecampos = 12: 3 (0.0)
|   |   |   |   |   |   |   |   |   iphonecampos = 13: 3 (0.0)
|   |   |   |   |   |   |   |   |   iphonecampos = 14: 3 (0.0)
|   |   |   |   |   |   |   |   |   iphonecampos = 15: 3 (0.0)
|   |   |   |   |   |   |   |   |   iphonecampos = 16: 3 (0.0)
|   |   |   |   |   |   |   |   |   iphonecampos = 17: 3 (0.0)
|   |   |   |   |   |   |   |   |   iphonecampos = 18: 3 (0.0)
|   |   |   |   |   |   |   |   |   iphonecampos = 19: 3 (0.0)
|   |   |   |   |   |   |   |   |   iphonecampos = 20: 3 (0.0)
|   |   |   |   |   |   |   |   |   iphonecampos = 23: 3 (0.0)
|   |   |   |   |   |   |   |   |   iphonecampos = 24: 3 (0.0)
|   |   |   |   |   |   |   |   |   iphonecampos = 26: 3 (0.0)
|   |   |   |   |   |   |   |   |   iphonecampos = 29: 3 (0.0)
|   |   |   |   |   |   |   |   |   iphonecampos = 39: 3 (0.0)
|   |   |   |   |   |   |   |   |   iphonecampos = 71: 3 (0.0)
|   |   |   |   |   |   |   |   |   iphonecampos = 83: 3 (0.0)
|   |   |   |   |   |   |   |   |   iphonecampos = 95: 3 (0.0)
|   |   |   |   |   |   |   |   |   iphonecampos = 156: 3 (0.0)
|   |   |   |   |   |   |   |   iphonedispos = 2: 5 (13.0/2.0)
|   |   |   |   |   |   |   |   iphonedispos = 3: 5 (7.0/2.0)
|   |   |   |   |   |   |   |   iphonedispos = 4: 5 (3.0)
|   |   |   |   |   |   |   |   iphonedispos = 5: 5 (0.0)
|   |   |   |   |   |   |   |   iphonedispos = 6: 5 (2.0)
|   |   |   |   |   |   |   |   iphonedispos = 7: 5 (0.0)
|   |   |   |   |   |   |   |   iphonedispos = 8: 5 (0.0)
|   |   |   |   |   |   |   |   iphonedispos = 9: 5 (0.0)
|   |   |   |   |   |   |   |   iphonedispos = 10: 5 (0.0)
|   |   |   |   |   |   |   |   iphonedispos = 11: 5 (0.0)
|   |   |   |   |   |   |   |   iphonedispos = 12: 5 (0.0)
|   |   |   |   |   |   |   |   iphonedispos = 13: 5 (0.0)
|   |   |   |   |   |   |   |   iphonedispos = 14: 5 (0.0)
|   |   |   |   |   |   |   |   iphonedispos = 15: 5 (0.0)
|   |   |   |   |   |   |   |   iphonedispos = 16: 5 (0.0)
|   |   |   |   |   |   |   |   iphonedispos = 17: 5 (0.0)
|   |   |   |   |   |   |   |   iphonedispos = 18: 5 (0.0)
|   |   |   |   |   |   |   |   iphonedispos = 19: 5 (0.0)
|   |   |   |   |   |   |   |   iphonedispos = 20: 5 (0.0)
|   |   |   |   |   |   |   |   iphonedispos = 22: 5 (0.0)
|   |   |   |   |   |   |   |   iphonedispos = 24: 5 (0.0)
|   |   |   |   |   |   |   |   iphonedispos = 25: 5 (0.0)
|   |   |   |   |   |   |   |   iphonedispos = 27: 5 (0.0)
|   |   |   |   |   |   |   |   iphonedispos = 28: 5 (0.0)
|   |   |   |   |   |   |   |   iphonedispos = 29: 5 (0.0)
|   |   |   |   |   |   |   |   iphonedispos = 31: 5 (0.0)
|   |   |   |   |   |   |   |   iphonedispos = 35: 5 (0.0)
|   |   |   |   |   |   |   |   iphonedispos = 49: 5 (0.0)
|   |   |   |   |   |   |   |   iphonedispos = 51: 5 (0.0)
|   |   |   |   |   |   |   |   iphonedispos = 66: 5 (0.0)
|   |   |   |   |   |   |   iphonedisneg = 2
|   |   |   |   |   |   |   |   iphonedispos = 0: 4 (2.0/1.0)
|   |   |   |   |   |   |   |   iphonedispos = 1: 3 (8.0/2.0)
|   |   |   |   |   |   |   |   iphonedispos = 2: 5 (11.0/5.0)
|   |   |   |   |   |   |   |   iphonedispos = 3: 5 (4.0/2.0)
|   |   |   |   |   |   |   |   iphonedispos = 4: 5 (0.0)
|   |   |   |   |   |   |   |   iphonedispos = 5: 5 (0.0)
|   |   |   |   |   |   |   |   iphonedispos = 6: 5 (0.0)
|   |   |   |   |   |   |   |   iphonedispos = 7: 5 (0.0)
|   |   |   |   |   |   |   |   iphonedispos = 8: 5 (0.0)
|   |   |   |   |   |   |   |   iphonedispos = 9: 5 (0.0)
|   |   |   |   |   |   |   |   iphonedispos = 10: 5 (0.0)
|   |   |   |   |   |   |   |   iphonedispos = 11: 5 (0.0)
|   |   |   |   |   |   |   |   iphonedispos = 12: 5 (0.0)
|   |   |   |   |   |   |   |   iphonedispos = 13: 5 (0.0)
|   |   |   |   |   |   |   |   iphonedispos = 14: 5 (0.0)
|   |   |   |   |   |   |   |   iphonedispos = 15: 5 (0.0)
|   |   |   |   |   |   |   |   iphonedispos = 16: 5 (0.0)
|   |   |   |   |   |   |   |   iphonedispos = 17: 5 (0.0)
|   |   |   |   |   |   |   |   iphonedispos = 18: 5 (0.0)
|   |   |   |   |   |   |   |   iphonedispos = 19: 5 (0.0)
|   |   |   |   |   |   |   |   iphonedispos = 20: 5 (0.0)
|   |   |   |   |   |   |   |   iphonedispos = 22: 5 (0.0)
|   |   |   |   |   |   |   |   iphonedispos = 24: 5 (0.0)
|   |   |   |   |   |   |   |   iphonedispos = 25: 5 (0.0)
|   |   |   |   |   |   |   |   iphonedispos = 27: 5 (0.0)
|   |   |   |   |   |   |   |   iphonedispos = 28: 5 (0.0)
|   |   |   |   |   |   |   |   iphonedispos = 29: 5 (0.0)
|   |   |   |   |   |   |   |   iphonedispos = 31: 5 (0.0)
|   |   |   |   |   |   |   |   iphonedispos = 35: 5 (0.0)
|   |   |   |   |   |   |   |   iphonedispos = 49: 5 (0.0)
|   |   |   |   |   |   |   |   iphonedispos = 51: 5 (0.0)
|   |   |   |   |   |   |   |   iphonedispos = 66: 5 (0.0)
|   |   |   |   |   |   |   iphonedisneg = 3: 5 (4.0/1.0)
|   |   |   |   |   |   |   iphonedisneg = 4: 3 (1.0)
|   |   |   |   |   |   |   iphonedisneg = 5: 4 (1.0)
|   |   |   |   |   |   |   iphonedisneg = 6: 5 (1.0)
|   |   |   |   |   |   |   iphonedisneg = 7: 3 (0.0)
|   |   |   |   |   |   |   iphonedisneg = 8: 3 (0.0)
|   |   |   |   |   |   |   iphonedisneg = 9: 3 (0.0)
|   |   |   |   |   |   |   iphonedisneg = 10: 3 (0.0)
|   |   |   |   |   |   |   iphonedisneg = 11: 3 (0.0)
|   |   |   |   |   |   |   iphonedisneg = 12: 3 (0.0)
|   |   |   |   |   |   |   iphonedisneg = 13: 3 (0.0)
|   |   |   |   |   |   |   iphonedisneg = 14: 3 (0.0)
|   |   |   |   |   |   |   iphonedisneg = 15: 3 (0.0)
|   |   |   |   |   |   |   iphonedisneg = 17: 3 (0.0)
|   |   |   |   |   |   |   iphonedisneg = 18: 3 (0.0)
|   |   |   |   |   |   |   iphonedisneg = 28: 3 (0.0)
|   |   |   |   |   |   |   iphonedisneg = 31: 3 (0.0)
|   |   |   |   |   |   |   iphonedisneg = 44: 3 (0.0)
|   |   |   |   |   |   |   iphonedisneg = 48: 3 (0.0)
|   |   |   |   |   |   |   iphonedisneg = 56: 3 (0.0)
|   |   |   |   |   |   |   iphonedisneg = 120: 3 (0.0)
|   |   |   |   |   |   iphoneperunc = 1: 5 (39.0/9.0)
|   |   |   |   |   |   iphoneperunc = 2: 5 (7.0/2.0)
|   |   |   |   |   |   iphoneperunc = 3: 5 (1.0)
|   |   |   |   |   |   iphoneperunc = 4: 5 (2.0)
|   |   |   |   |   |   iphoneperunc = 5: 5 (1.0)
|   |   |   |   |   |   iphoneperunc = 6: 3 (0.0)
|   |   |   |   |   |   iphoneperunc = 7: 3 (0.0)
|   |   |   |   |   |   iphoneperunc = 8: 3 (0.0)
|   |   |   |   |   |   iphoneperunc = 9: 3 (0.0)
|   |   |   |   |   |   iphoneperunc = 10: 3 (0.0)
|   |   |   |   |   |   iphoneperunc = 11: 3 (0.0)
|   |   |   |   |   |   iphoneperunc = 18: 3 (0.0)
|   |   |   |   |   |   iphoneperunc = 19: 3 (0.0)
|   |   |   |   |   |   iphoneperunc = 25: 3 (0.0)
|   |   |   |   |   |   iphoneperunc = 31: 3 (0.0)
|   |   |   |   |   iphoneperneg = 1: 5 (143.0/40.0)
|   |   |   |   |   iphoneperneg = 2
|   |   |   |   |   |   iphonecampos = 0: 5 (43.0/9.0)
|   |   |   |   |   |   iphonecampos = 1
|   |   |   |   |   |   |   iphonedisneg = 0: 0 (2.0/1.0)
|   |   |   |   |   |   |   iphonedisneg = 1: 5 (10.0/2.0)
|   |   |   |   |   |   |   iphonedisneg = 2: 5 (0.0)
|   |   |   |   |   |   |   iphonedisneg = 3: 5 (0.0)
|   |   |   |   |   |   |   iphonedisneg = 4: 4 (1.0)
|   |   |   |   |   |   |   iphonedisneg = 5: 5 (0.0)
|   |   |   |   |   |   |   iphonedisneg = 6: 5 (0.0)
|   |   |   |   |   |   |   iphonedisneg = 7: 5 (0.0)
|   |   |   |   |   |   |   iphonedisneg = 8: 5 (0.0)
|   |   |   |   |   |   |   iphonedisneg = 9: 5 (0.0)
|   |   |   |   |   |   |   iphonedisneg = 10: 5 (0.0)
|   |   |   |   |   |   |   iphonedisneg = 11: 5 (0.0)
|   |   |   |   |   |   |   iphonedisneg = 12: 5 (0.0)
|   |   |   |   |   |   |   iphonedisneg = 13: 5 (0.0)
|   |   |   |   |   |   |   iphonedisneg = 14: 5 (0.0)
|   |   |   |   |   |   |   iphonedisneg = 15: 5 (0.0)
|   |   |   |   |   |   |   iphonedisneg = 17: 5 (0.0)
|   |   |   |   |   |   |   iphonedisneg = 18: 5 (0.0)
|   |   |   |   |   |   |   iphonedisneg = 28: 5 (0.0)
|   |   |   |   |   |   |   iphonedisneg = 31: 5 (0.0)
|   |   |   |   |   |   |   iphonedisneg = 44: 5 (0.0)
|   |   |   |   |   |   |   iphonedisneg = 48: 5 (0.0)
|   |   |   |   |   |   |   iphonedisneg = 56: 5 (0.0)
|   |   |   |   |   |   |   iphonedisneg = 120: 5 (0.0)
|   |   |   |   |   |   iphonecampos = 2: 5 (8.0/4.0)
|   |   |   |   |   |   iphonecampos = 3: 0 (2.0)
|   |   |   |   |   |   iphonecampos = 4: 1 (1.0)
|   |   |   |   |   |   iphonecampos = 5: 5 (0.0)
|   |   |   |   |   |   iphonecampos = 6: 5 (0.0)
|   |   |   |   |   |   iphonecampos = 7: 5 (0.0)
|   |   |   |   |   |   iphonecampos = 8: 5 (0.0)
|   |   |   |   |   |   iphonecampos = 9: 5 (0.0)
|   |   |   |   |   |   iphonecampos = 10: 5 (0.0)
|   |   |   |   |   |   iphonecampos = 11: 5 (0.0)
|   |   |   |   |   |   iphonecampos = 12: 5 (0.0)
|   |   |   |   |   |   iphonecampos = 13: 5 (0.0)
|   |   |   |   |   |   iphonecampos = 14: 5 (0.0)
|   |   |   |   |   |   iphonecampos = 15: 5 (0.0)
|   |   |   |   |   |   iphonecampos = 16: 5 (0.0)
|   |   |   |   |   |   iphonecampos = 17: 5 (0.0)
|   |   |   |   |   |   iphonecampos = 18: 5 (0.0)
|   |   |   |   |   |   iphonecampos = 19: 4 (1.0)
|   |   |   |   |   |   iphonecampos = 20: 5 (0.0)
|   |   |   |   |   |   iphonecampos = 23: 5 (0.0)
|   |   |   |   |   |   iphonecampos = 24: 5 (0.0)
|   |   |   |   |   |   iphonecampos = 26: 5 (0.0)
|   |   |   |   |   |   iphonecampos = 29: 5 (0.0)
|   |   |   |   |   |   iphonecampos = 39: 5 (0.0)
|   |   |   |   |   |   iphonecampos = 71: 5 (0.0)
|   |   |   |   |   |   iphonecampos = 83: 5 (0.0)
|   |   |   |   |   |   iphonecampos = 95: 5 (0.0)
|   |   |   |   |   |   iphonecampos = 156: 5 (0.0)
|   |   |   |   |   iphoneperneg = 3: 5 (37.0/14.0)
|   |   |   |   |   iphoneperneg = 4
|   |   |   |   |   |   iphonecampos = 0: 5 (4.0)
|   |   |   |   |   |   iphonecampos = 1: 4 (3.0/1.0)
|   |   |   |   |   |   iphonecampos = 2: 5 (0.0)
|   |   |   |   |   |   iphonecampos = 3: 5 (0.0)
|   |   |   |   |   |   iphonecampos = 4: 5 (0.0)
|   |   |   |   |   |   iphonecampos = 5: 5 (0.0)
|   |   |   |   |   |   iphonecampos = 6: 5 (0.0)
|   |   |   |   |   |   iphonecampos = 7: 5 (0.0)
|   |   |   |   |   |   iphonecampos = 8: 5 (0.0)
|   |   |   |   |   |   iphonecampos = 9: 5 (0.0)
|   |   |   |   |   |   iphonecampos = 10: 5 (1.0)
|   |   |   |   |   |   iphonecampos = 11: 4 (1.0)
|   |   |   |   |   |   iphonecampos = 12: 5 (0.0)
|   |   |   |   |   |   iphonecampos = 13: 5 (0.0)
|   |   |   |   |   |   iphonecampos = 14: 5 (0.0)
|   |   |   |   |   |   iphonecampos = 15: 5 (0.0)
|   |   |   |   |   |   iphonecampos = 16: 5 (0.0)
|   |   |   |   |   |   iphonecampos = 17: 5 (0.0)
|   |   |   |   |   |   iphonecampos = 18: 5 (0.0)
|   |   |   |   |   |   iphonecampos = 19: 5 (0.0)
|   |   |   |   |   |   iphonecampos = 20: 5 (0.0)
|   |   |   |   |   |   iphonecampos = 23: 5 (0.0)
|   |   |   |   |   |   iphonecampos = 24: 5 (0.0)
|   |   |   |   |   |   iphonecampos = 26: 5 (0.0)
|   |   |   |   |   |   iphonecampos = 29: 5 (0.0)
|   |   |   |   |   |   iphonecampos = 39: 5 (0.0)
|   |   |   |   |   |   iphonecampos = 71: 5 (0.0)
|   |   |   |   |   |   iphonecampos = 83: 5 (0.0)
|   |   |   |   |   |   iphonecampos = 95: 5 (0.0)
|   |   |   |   |   |   iphonecampos = 156: 5 (0.0)
|   |   |   |   |   iphoneperneg = 5: 5 (4.0/1.0)
|   |   |   |   |   iphoneperneg = 6: 5 (7.0/1.0)
|   |   |   |   |   iphoneperneg = 7: 5 (2.0)
|   |   |   |   |   iphoneperneg = 8: 4 (1.0)
|   |   |   |   |   iphoneperneg = 9: 2 (1.0)
|   |   |   |   |   iphoneperneg = 10: 5 (1.0)
|   |   |   |   |   iphoneperneg = 11: 5 (1.0)
|   |   |   |   |   iphoneperneg = 12: 0 (2.0/1.0)
|   |   |   |   |   iphoneperneg = 13: 5 (0.0)
|   |   |   |   |   iphoneperneg = 14: 5 (0.0)
|   |   |   |   |   iphoneperneg = 15: 5 (1.0)
|   |   |   |   |   iphoneperneg = 16: 5 (0.0)
|   |   |   |   |   iphoneperneg = 19: 5 (0.0)
|   |   |   |   |   iphoneperneg = 21: 5 (0.0)
|   |   |   |   |   iphoneperneg = 27: 5 (0.0)
|   |   |   |   |   iphoneperneg = 28: 1 (1.0)
|   |   |   |   |   iphoneperneg = 33: 5 (0.0)
|   |   |   |   iphonedisunc = 2
|   |   |   |   |   iphonedisneg = 0
|   |   |   |   |   |   iphoneperunc = 0
|   |   |   |   |   |   |   iphone = 0: 3 (0.0)
|   |   |   |   |   |   |   iphone = 1
|   |   |   |   |   |   |   |   iphoneperneg = 0: 3 (29.0/3.0)
|   |   |   |   |   |   |   |   iphoneperneg = 1: 5 (2.0)
|   |   |   |   |   |   |   |   iphoneperneg = 2: 5 (1.0)
|   |   |   |   |   |   |   |   iphoneperneg = 3: 3 (0.0)
|   |   |   |   |   |   |   |   iphoneperneg = 4: 3 (0.0)
|   |   |   |   |   |   |   |   iphoneperneg = 5: 3 (0.0)
|   |   |   |   |   |   |   |   iphoneperneg = 6: 3 (0.0)
|   |   |   |   |   |   |   |   iphoneperneg = 7: 3 (0.0)
|   |   |   |   |   |   |   |   iphoneperneg = 8: 3 (0.0)
|   |   |   |   |   |   |   |   iphoneperneg = 9: 3 (0.0)
|   |   |   |   |   |   |   |   iphoneperneg = 10: 3 (0.0)
|   |   |   |   |   |   |   |   iphoneperneg = 11: 3 (0.0)
|   |   |   |   |   |   |   |   iphoneperneg = 12: 3 (0.0)
|   |   |   |   |   |   |   |   iphoneperneg = 13: 3 (0.0)
|   |   |   |   |   |   |   |   iphoneperneg = 14: 3 (0.0)
|   |   |   |   |   |   |   |   iphoneperneg = 15: 3 (0.0)
|   |   |   |   |   |   |   |   iphoneperneg = 16: 3 (0.0)
|   |   |   |   |   |   |   |   iphoneperneg = 19: 3 (0.0)
|   |   |   |   |   |   |   |   iphoneperneg = 21: 3 (0.0)
|   |   |   |   |   |   |   |   iphoneperneg = 27: 3 (0.0)
|   |   |   |   |   |   |   |   iphoneperneg = 28: 3 (0.0)
|   |   |   |   |   |   |   |   iphoneperneg = 33: 3 (0.0)
|   |   |   |   |   |   |   iphone = 2: 5 (7.0/1.0)
|   |   |   |   |   |   |   iphone = 3: 5 (1.0)
|   |   |   |   |   |   |   iphone = 4: 4 (2.0/1.0)
|   |   |   |   |   |   |   iphone = 5: 3 (0.0)
|   |   |   |   |   |   |   iphone = 6: 3 (0.0)
|   |   |   |   |   |   |   iphone = 7: 3 (0.0)
|   |   |   |   |   |   |   iphone = 8: 3 (0.0)
|   |   |   |   |   |   |   iphone = 9: 3 (0.0)
|   |   |   |   |   |   |   iphone = 10: 3 (0.0)
|   |   |   |   |   |   |   iphone = 11: 3 (0.0)
|   |   |   |   |   |   |   iphone = 12: 3 (0.0)
|   |   |   |   |   |   |   iphone = 13: 3 (0.0)
|   |   |   |   |   |   |   iphone = 14: 3 (0.0)
|   |   |   |   |   |   |   iphone = 16: 3 (0.0)
|   |   |   |   |   |   |   iphone = 18: 3 (0.0)
|   |   |   |   |   |   |   iphone = 19: 3 (0.0)
|   |   |   |   |   |   |   iphone = 20: 3 (0.0)
|   |   |   |   |   |   |   iphone = 21: 3 (0.0)
|   |   |   |   |   |   |   iphone = 25: 3 (0.0)
|   |   |   |   |   |   |   iphone = 26: 3 (0.0)
|   |   |   |   |   |   |   iphone = 37: 3 (0.0)
|   |   |   |   |   |   |   iphone = 38: 3 (0.0)
|   |   |   |   |   |   |   iphone = 40: 3 (0.0)
|   |   |   |   |   |   |   iphone = 41: 3 (0.0)
|   |   |   |   |   |   |   iphone = 46: 3 (0.0)
|   |   |   |   |   |   iphoneperunc = 1: 5 (7.0)
|   |   |   |   |   |   iphoneperunc = 2: 5 (7.0/1.0)
|   |   |   |   |   |   iphoneperunc = 3: 5 (3.0/1.0)
|   |   |   |   |   |   iphoneperunc = 4: 5 (0.0)
|   |   |   |   |   |   iphoneperunc = 5: 5 (0.0)
|   |   |   |   |   |   iphoneperunc = 6: 5 (0.0)
|   |   |   |   |   |   iphoneperunc = 7: 5 (0.0)
|   |   |   |   |   |   iphoneperunc = 8: 4 (1.0)
|   |   |   |   |   |   iphoneperunc = 9: 5 (0.0)
|   |   |   |   |   |   iphoneperunc = 10: 5 (0.0)
|   |   |   |   |   |   iphoneperunc = 11: 5 (0.0)
|   |   |   |   |   |   iphoneperunc = 18: 5 (0.0)
|   |   |   |   |   |   iphoneperunc = 19: 5 (0.0)
|   |   |   |   |   |   iphoneperunc = 25: 5 (0.0)
|   |   |   |   |   |   iphoneperunc = 31: 5 (0.0)
|   |   |   |   |   iphonedisneg = 1: 5 (47.0/13.0)
|   |   |   |   |   iphonedisneg = 2
|   |   |   |   |   |   iphonecampos = 0: 5 (39.0/15.0)
|   |   |   |   |   |   iphonecampos = 1
|   |   |   |   |   |   |   iphonedispos = 0: 4 (0.0)
|   |   |   |   |   |   |   iphonedispos = 1: 4 (3.0)
|   |   |   |   |   |   |   iphonedispos = 2: 4 (7.0/1.0)
|   |   |   |   |   |   |   iphonedispos = 3: 2 (2.0/1.0)
|   |   |   |   |   |   |   iphonedispos = 4: 5 (1.0)
|   |   |   |   |   |   |   iphonedispos = 5: 2 (1.0)
|   |   |   |   |   |   |   iphonedispos = 6: 4 (0.0)
|   |   |   |   |   |   |   iphonedispos = 7: 4 (0.0)
|   |   |   |   |   |   |   iphonedispos = 8: 4 (0.0)
|   |   |   |   |   |   |   iphonedispos = 9: 4 (0.0)
|   |   |   |   |   |   |   iphonedispos = 10: 4 (0.0)
|   |   |   |   |   |   |   iphonedispos = 11: 4 (0.0)
|   |   |   |   |   |   |   iphonedispos = 12: 4 (0.0)
|   |   |   |   |   |   |   iphonedispos = 13: 4 (0.0)
|   |   |   |   |   |   |   iphonedispos = 14: 4 (0.0)
|   |   |   |   |   |   |   iphonedispos = 15: 4 (0.0)
|   |   |   |   |   |   |   iphonedispos = 16: 4 (0.0)
|   |   |   |   |   |   |   iphonedispos = 17: 4 (0.0)
|   |   |   |   |   |   |   iphonedispos = 18: 4 (0.0)
|   |   |   |   |   |   |   iphonedispos = 19: 4 (0.0)
|   |   |   |   |   |   |   iphonedispos = 20: 4 (0.0)
|   |   |   |   |   |   |   iphonedispos = 22: 4 (0.0)
|   |   |   |   |   |   |   iphonedispos = 24: 4 (0.0)
|   |   |   |   |   |   |   iphonedispos = 25: 4 (0.0)
|   |   |   |   |   |   |   iphonedispos = 27: 4 (0.0)
|   |   |   |   |   |   |   iphonedispos = 28: 4 (0.0)
|   |   |   |   |   |   |   iphonedispos = 29: 4 (0.0)
|   |   |   |   |   |   |   iphonedispos = 31: 4 (0.0)
|   |   |   |   |   |   |   iphonedispos = 35: 4 (0.0)
|   |   |   |   |   |   |   iphonedispos = 49: 4 (0.0)
|   |   |   |   |   |   |   iphonedispos = 51: 4 (0.0)
|   |   |   |   |   |   |   iphonedispos = 66: 4 (0.0)
|   |   |   |   |   |   iphonecampos = 2: 5 (4.0/2.0)
|   |   |   |   |   |   iphonecampos = 3: 5 (3.0)
|   |   |   |   |   |   iphonecampos = 4: 5 (0.0)
|   |   |   |   |   |   iphonecampos = 5: 4 (2.0/1.0)
|   |   |   |   |   |   iphonecampos = 6: 5 (2.0)
|   |   |   |   |   |   iphonecampos = 7: 5 (0.0)
|   |   |   |   |   |   iphonecampos = 8: 5 (0.0)
|   |   |   |   |   |   iphonecampos = 9: 5 (0.0)
|   |   |   |   |   |   iphonecampos = 10: 5 (0.0)
|   |   |   |   |   |   iphonecampos = 11: 5 (1.0)
|   |   |   |   |   |   iphonecampos = 12: 5 (0.0)
|   |   |   |   |   |   iphonecampos = 13: 5 (0.0)
|   |   |   |   |   |   iphonecampos = 14: 5 (0.0)
|   |   |   |   |   |   iphonecampos = 15: 5 (0.0)
|   |   |   |   |   |   iphonecampos = 16: 5 (0.0)
|   |   |   |   |   |   iphonecampos = 17: 5 (0.0)
|   |   |   |   |   |   iphonecampos = 18: 5 (0.0)
|   |   |   |   |   |   iphonecampos = 19: 5 (0.0)
|   |   |   |   |   |   iphonecampos = 20: 5 (0.0)
|   |   |   |   |   |   iphonecampos = 23: 5 (0.0)
|   |   |   |   |   |   iphonecampos = 24: 5 (0.0)
|   |   |   |   |   |   iphonecampos = 26: 5 (0.0)
|   |   |   |   |   |   iphonecampos = 29: 5 (0.0)
|   |   |   |   |   |   iphonecampos = 39: 5 (0.0)
|   |   |   |   |   |   iphonecampos = 71: 5 (0.0)
|   |   |   |   |   |   iphonecampos = 83: 5 (0.0)
|   |   |   |   |   |   iphonecampos = 95: 5 (0.0)
|   |   |   |   |   |   iphonecampos = 156: 5 (0.0)
|   |   |   |   |   iphonedisneg = 3: 5 (22.0/7.0)
|   |   |   |   |   iphonedisneg = 4
|   |   |   |   |   |   iphonecampos = 0: 5 (5.0/1.0)
|   |   |   |   |   |   iphonecampos = 1: 5 (3.0)
|   |   |   |   |   |   iphonecampos = 2: 4 (1.0)
|   |   |   |   |   |   iphonecampos = 3: 5 (0.0)
|   |   |   |   |   |   iphonecampos = 4: 4 (1.0)
|   |   |   |   |   |   iphonecampos = 5: 5 (0.0)
|   |   |   |   |   |   iphonecampos = 6: 5 (0.0)
|   |   |   |   |   |   iphonecampos = 7: 5 (0.0)
|   |   |   |   |   |   iphonecampos = 8: 5 (0.0)
|   |   |   |   |   |   iphonecampos = 9: 5 (0.0)
|   |   |   |   |   |   iphonecampos = 10: 5 (0.0)
|   |   |   |   |   |   iphonecampos = 11: 5 (0.0)
|   |   |   |   |   |   iphonecampos = 12: 5 (0.0)
|   |   |   |   |   |   iphonecampos = 13: 5 (0.0)
|   |   |   |   |   |   iphonecampos = 14: 5 (0.0)
|   |   |   |   |   |   iphonecampos = 15: 5 (0.0)
|   |   |   |   |   |   iphonecampos = 16: 5 (0.0)
|   |   |   |   |   |   iphonecampos = 17: 5 (0.0)
|   |   |   |   |   |   iphonecampos = 18: 5 (0.0)
|   |   |   |   |   |   iphonecampos = 19: 5 (0.0)
|   |   |   |   |   |   iphonecampos = 20: 5 (0.0)
|   |   |   |   |   |   iphonecampos = 23: 5 (0.0)
|   |   |   |   |   |   iphonecampos = 24: 5 (0.0)
|   |   |   |   |   |   iphonecampos = 26: 5 (0.0)
|   |   |   |   |   |   iphonecampos = 29: 5 (0.0)
|   |   |   |   |   |   iphonecampos = 39: 5 (0.0)
|   |   |   |   |   |   iphonecampos = 71: 5 (0.0)
|   |   |   |   |   |   iphonecampos = 83: 5 (0.0)
|   |   |   |   |   |   iphonecampos = 95: 5 (0.0)
|   |   |   |   |   |   iphonecampos = 156: 5 (0.0)
|   |   |   |   |   iphonedisneg = 5: 5 (1.0)
|   |   |   |   |   iphonedisneg = 6: 5 (6.0/1.0)
|   |   |   |   |   iphonedisneg = 7: 4 (2.0/1.0)
|   |   |   |   |   iphonedisneg = 8: 5 (0.0)
|   |   |   |   |   iphonedisneg = 9: 4 (1.0)
|   |   |   |   |   iphonedisneg = 10: 5 (0.0)
|   |   |   |   |   iphonedisneg = 11: 5 (0.0)
|   |   |   |   |   iphonedisneg = 12: 5 (0.0)
|   |   |   |   |   iphonedisneg = 13: 5 (1.0)
|   |   |   |   |   iphonedisneg = 14: 5 (0.0)
|   |   |   |   |   iphonedisneg = 15: 5 (0.0)
|   |   |   |   |   iphonedisneg = 17: 5 (0.0)
|   |   |   |   |   iphonedisneg = 18: 5 (0.0)
|   |   |   |   |   iphonedisneg = 28: 5 (1.0)
|   |   |   |   |   iphonedisneg = 31: 5 (0.0)
|   |   |   |   |   iphonedisneg = 44: 5 (0.0)
|   |   |   |   |   iphonedisneg = 48: 5 (0.0)
|   |   |   |   |   iphonedisneg = 56: 5 (0.0)
|   |   |   |   |   iphonedisneg = 120: 5 (0.0)
|   |   |   |   iphonedisunc = 3
|   |   |   |   |   iphoneperpos = 0
|   |   |   |   |   |   iphonedisneg = 0
|   |   |   |   |   |   |   iphonecamneg = 0: 3 (6.0/1.0)
|   |   |   |   |   |   |   iphonecamneg = 1: 4 (2.0)
|   |   |   |   |   |   |   iphonecamneg = 2: 3 (0.0)
|   |   |   |   |   |   |   iphonecamneg = 3: 3 (0.0)
|   |   |   |   |   |   |   iphonecamneg = 4: 3 (0.0)
|   |   |   |   |   |   |   iphonecamneg = 5: 3 (0.0)
|   |   |   |   |   |   |   iphonecamneg = 6: 3 (0.0)
|   |   |   |   |   |   |   iphonecamneg = 7: 3 (0.0)
|   |   |   |   |   |   |   iphonecamneg = 8: 3 (0.0)
|   |   |   |   |   |   |   iphonecamneg = 9: 3 (0.0)
|   |   |   |   |   |   |   iphonecamneg = 10: 3 (0.0)
|   |   |   |   |   |   |   iphonecamneg = 11: 3 (0.0)
|   |   |   |   |   |   |   iphonecamneg = 15: 3 (0.0)
|   |   |   |   |   |   |   iphonecamneg = 18: 3 (0.0)
|   |   |   |   |   |   |   iphonecamneg = 19: 3 (0.0)
|   |   |   |   |   |   |   iphonecamneg = 20: 3 (0.0)
|   |   |   |   |   |   |   iphonecamneg = 31: 3 (0.0)
|   |   |   |   |   |   iphonedisneg = 1: 5 (4.0/1.0)
|   |   |   |   |   |   iphonedisneg = 2: 5 (4.0/1.0)
|   |   |   |   |   |   iphonedisneg = 3: 4 (2.0)
|   |   |   |   |   |   iphonedisneg = 4: 5 (0.0)
|   |   |   |   |   |   iphonedisneg = 5: 5 (1.0)
|   |   |   |   |   |   iphonedisneg = 6: 5 (0.0)
|   |   |   |   |   |   iphonedisneg = 7: 5 (0.0)
|   |   |   |   |   |   iphonedisneg = 8: 5 (0.0)
|   |   |   |   |   |   iphonedisneg = 9: 5 (0.0)
|   |   |   |   |   |   iphonedisneg = 10: 5 (0.0)
|   |   |   |   |   |   iphonedisneg = 11: 5 (0.0)
|   |   |   |   |   |   iphonedisneg = 12: 5 (0.0)
|   |   |   |   |   |   iphonedisneg = 13: 5 (0.0)
|   |   |   |   |   |   iphonedisneg = 14: 5 (0.0)
|   |   |   |   |   |   iphonedisneg = 15: 5 (0.0)
|   |   |   |   |   |   iphonedisneg = 17: 5 (0.0)
|   |   |   |   |   |   iphonedisneg = 18: 5 (0.0)
|   |   |   |   |   |   iphonedisneg = 28: 5 (0.0)
|   |   |   |   |   |   iphonedisneg = 31: 5 (0.0)
|   |   |   |   |   |   iphonedisneg = 44: 5 (0.0)
|   |   |   |   |   |   iphonedisneg = 48: 5 (0.0)
|   |   |   |   |   |   iphonedisneg = 56: 5 (0.0)
|   |   |   |   |   |   iphonedisneg = 120: 5 (0.0)
|   |   |   |   |   iphoneperpos = 1
|   |   |   |   |   |   iphoneperunc = 0
|   |   |   |   |   |   |   iphonedispos = 0: 2 (2.0)
|   |   |   |   |   |   |   iphonedispos = 1: 4 (2.0)
|   |   |   |   |   |   |   iphonedispos = 2: 4 (0.0)
|   |   |   |   |   |   |   iphonedispos = 3: 4 (1.0)
|   |   |   |   |   |   |   iphonedispos = 4: 4 (0.0)
|   |   |   |   |   |   |   iphonedispos = 5: 4 (0.0)
|   |   |   |   |   |   |   iphonedispos = 6: 4 (0.0)
|   |   |   |   |   |   |   iphonedispos = 7: 4 (0.0)
|   |   |   |   |   |   |   iphonedispos = 8: 4 (0.0)
|   |   |   |   |   |   |   iphonedispos = 9: 4 (0.0)
|   |   |   |   |   |   |   iphonedispos = 10: 4 (0.0)
|   |   |   |   |   |   |   iphonedispos = 11: 4 (0.0)
|   |   |   |   |   |   |   iphonedispos = 12: 4 (0.0)
|   |   |   |   |   |   |   iphonedispos = 13: 4 (0.0)
|   |   |   |   |   |   |   iphonedispos = 14: 4 (0.0)
|   |   |   |   |   |   |   iphonedispos = 15: 4 (0.0)
|   |   |   |   |   |   |   iphonedispos = 16: 4 (0.0)
|   |   |   |   |   |   |   iphonedispos = 17: 4 (0.0)
|   |   |   |   |   |   |   iphonedispos = 18: 4 (0.0)
|   |   |   |   |   |   |   iphonedispos = 19: 4 (0.0)
|   |   |   |   |   |   |   iphonedispos = 20: 4 (0.0)
|   |   |   |   |   |   |   iphonedispos = 22: 4 (0.0)
|   |   |   |   |   |   |   iphonedispos = 24: 4 (0.0)
|   |   |   |   |   |   |   iphonedispos = 25: 4 (0.0)
|   |   |   |   |   |   |   iphonedispos = 27: 4 (0.0)
|   |   |   |   |   |   |   iphonedispos = 28: 4 (0.0)
|   |   |   |   |   |   |   iphonedispos = 29: 4 (0.0)
|   |   |   |   |   |   |   iphonedispos = 31: 4 (0.0)
|   |   |   |   |   |   |   iphonedispos = 35: 4 (0.0)
|   |   |   |   |   |   |   iphonedispos = 49: 4 (0.0)
|   |   |   |   |   |   |   iphonedispos = 51: 4 (0.0)
|   |   |   |   |   |   |   iphonedispos = 66: 4 (0.0)
|   |   |   |   |   |   iphoneperunc = 1
|   |   |   |   |   |   |   iphonecamneg = 0: 5 (5.0/2.0)
|   |   |   |   |   |   |   iphonecamneg = 1
|   |   |   |   |   |   |   |   iphonedispos = 0: 4 (0.0)
|   |   |   |   |   |   |   |   iphonedispos = 1: 4 (2.0/1.0)
|   |   |   |   |   |   |   |   iphonedispos = 2: 5 (2.0)
|   |   |   |   |   |   |   |   iphonedispos = 3: 4 (2.0)
|   |   |   |   |   |   |   |   iphonedispos = 4: 4 (1.0)
|   |   |   |   |   |   |   |   iphonedispos = 5: 4 (0.0)
|   |   |   |   |   |   |   |   iphonedispos = 6: 4 (0.0)
|   |   |   |   |   |   |   |   iphonedispos = 7: 4 (0.0)
|   |   |   |   |   |   |   |   iphonedispos = 8: 4 (0.0)
|   |   |   |   |   |   |   |   iphonedispos = 9: 4 (0.0)
|   |   |   |   |   |   |   |   iphonedispos = 10: 4 (0.0)
|   |   |   |   |   |   |   |   iphonedispos = 11: 4 (0.0)
|   |   |   |   |   |   |   |   iphonedispos = 12: 4 (0.0)
|   |   |   |   |   |   |   |   iphonedispos = 13: 4 (0.0)
|   |   |   |   |   |   |   |   iphonedispos = 14: 4 (0.0)
|   |   |   |   |   |   |   |   iphonedispos = 15: 4 (0.0)
|   |   |   |   |   |   |   |   iphonedispos = 16: 4 (0.0)
|   |   |   |   |   |   |   |   iphonedispos = 17: 4 (0.0)
|   |   |   |   |   |   |   |   iphonedispos = 18: 4 (0.0)
|   |   |   |   |   |   |   |   iphonedispos = 19: 4 (0.0)
|   |   |   |   |   |   |   |   iphonedispos = 20: 4 (0.0)
|   |   |   |   |   |   |   |   iphonedispos = 22: 4 (0.0)
|   |   |   |   |   |   |   |   iphonedispos = 24: 4 (0.0)
|   |   |   |   |   |   |   |   iphonedispos = 25: 4 (0.0)
|   |   |   |   |   |   |   |   iphonedispos = 27: 4 (0.0)
|   |   |   |   |   |   |   |   iphonedispos = 28: 4 (0.0)
|   |   |   |   |   |   |   |   iphonedispos = 29: 4 (0.0)
|   |   |   |   |   |   |   |   iphonedispos = 31: 4 (0.0)
|   |   |   |   |   |   |   |   iphonedispos = 35: 4 (0.0)
|   |   |   |   |   |   |   |   iphonedispos = 49: 4 (0.0)
|   |   |   |   |   |   |   |   iphonedispos = 51: 4 (0.0)
|   |   |   |   |   |   |   |   iphonedispos = 66: 4 (0.0)
|   |   |   |   |   |   |   iphonecamneg = 2: 5 (0.0)
|   |   |   |   |   |   |   iphonecamneg = 3: 0 (2.0)
|   |   |   |   |   |   |   iphonecamneg = 4: 5 (0.0)
|   |   |   |   |   |   |   iphonecamneg = 5: 5 (0.0)
|   |   |   |   |   |   |   iphonecamneg = 6: 5 (0.0)
|   |   |   |   |   |   |   iphonecamneg = 7: 5 (0.0)
|   |   |   |   |   |   |   iphonecamneg = 8: 5 (0.0)
|   |   |   |   |   |   |   iphonecamneg = 9: 5 (0.0)
|   |   |   |   |   |   |   iphonecamneg = 10: 5 (0.0)
|   |   |   |   |   |   |   iphonecamneg = 11: 5 (0.0)
|   |   |   |   |   |   |   iphonecamneg = 15: 5 (0.0)
|   |   |   |   |   |   |   iphonecamneg = 18: 5 (0.0)
|   |   |   |   |   |   |   iphonecamneg = 19: 5 (0.0)
|   |   |   |   |   |   |   iphonecamneg = 20: 5 (0.0)
|   |   |   |   |   |   |   iphonecamneg = 31: 5 (0.0)
|   |   |   |   |   |   iphoneperunc = 2: 5 (1.0)
|   |   |   |   |   |   iphoneperunc = 3: 0 (1.0)
|   |   |   |   |   |   iphoneperunc = 4: 4 (0.0)
|   |   |   |   |   |   iphoneperunc = 5: 4 (0.0)
|   |   |   |   |   |   iphoneperunc = 6: 4 (0.0)
|   |   |   |   |   |   iphoneperunc = 7: 4 (0.0)
|   |   |   |   |   |   iphoneperunc = 8: 4 (0.0)
|   |   |   |   |   |   iphoneperunc = 9: 4 (0.0)
|   |   |   |   |   |   iphoneperunc = 10: 4 (0.0)
|   |   |   |   |   |   iphoneperunc = 11: 4 (0.0)
|   |   |   |   |   |   iphoneperunc = 18: 4 (0.0)
|   |   |   |   |   |   iphoneperunc = 19: 4 (0.0)
|   |   |   |   |   |   iphoneperunc = 25: 4 (0.0)
|   |   |   |   |   |   iphoneperunc = 31: 4 (0.0)
|   |   |   |   |   iphoneperpos = 2
|   |   |   |   |   |   iphonecampos = 0: 5 (5.0/1.0)
|   |   |   |   |   |   iphonecampos = 1: 4 (2.0/1.0)
|   |   |   |   |   |   iphonecampos = 2: 5 (0.0)
|   |   |   |   |   |   iphonecampos = 3: 4 (1.0)
|   |   |   |   |   |   iphonecampos = 4: 4 (1.0)
|   |   |   |   |   |   iphonecampos = 5: 5 (0.0)
|   |   |   |   |   |   iphonecampos = 6: 5 (0.0)
|   |   |   |   |   |   iphonecampos = 7: 5 (0.0)
|   |   |   |   |   |   iphonecampos = 8: 5 (0.0)
|   |   |   |   |   |   iphonecampos = 9: 5 (0.0)
|   |   |   |   |   |   iphonecampos = 10: 5 (0.0)
|   |   |   |   |   |   iphonecampos = 11: 5 (0.0)
|   |   |   |   |   |   iphonecampos = 12: 5 (0.0)
|   |   |   |   |   |   iphonecampos = 13: 5 (0.0)
|   |   |   |   |   |   iphonecampos = 14: 5 (0.0)
|   |   |   |   |   |   iphonecampos = 15: 5 (0.0)
|   |   |   |   |   |   iphonecampos = 16: 5 (0.0)
|   |   |   |   |   |   iphonecampos = 17: 5 (0.0)
|   |   |   |   |   |   iphonecampos = 18: 5 (0.0)
|   |   |   |   |   |   iphonecampos = 19: 5 (0.0)
|   |   |   |   |   |   iphonecampos = 20: 5 (0.0)
|   |   |   |   |   |   iphonecampos = 23: 5 (0.0)
|   |   |   |   |   |   iphonecampos = 24: 5 (0.0)
|   |   |   |   |   |   iphonecampos = 26: 5 (0.0)
|   |   |   |   |   |   iphonecampos = 29: 5 (0.0)
|   |   |   |   |   |   iphonecampos = 39: 5 (0.0)
|   |   |   |   |   |   iphonecampos = 71: 5 (0.0)
|   |   |   |   |   |   iphonecampos = 83: 5 (0.0)
|   |   |   |   |   |   iphonecampos = 95: 5 (0.0)
|   |   |   |   |   |   iphonecampos = 156: 5 (0.0)
|   |   |   |   |   iphoneperpos = 3: 5 (22.0/8.0)
|   |   |   |   |   iphoneperpos = 4: 5 (5.0/1.0)
|   |   |   |   |   iphoneperpos = 5
|   |   |   |   |   |   iphonecamneg = 0: 5 (6.0)
|   |   |   |   |   |   iphonecamneg = 1: 4 (2.0)
|   |   |   |   |   |   iphonecamneg = 2: 5 (0.0)
|   |   |   |   |   |   iphonecamneg = 3: 5 (1.0)
|   |   |   |   |   |   iphonecamneg = 4: 5 (0.0)
|   |   |   |   |   |   iphonecamneg = 5: 5 (0.0)
|   |   |   |   |   |   iphonecamneg = 6: 5 (0.0)
|   |   |   |   |   |   iphonecamneg = 7: 5 (0.0)
|   |   |   |   |   |   iphonecamneg = 8: 5 (0.0)
|   |   |   |   |   |   iphonecamneg = 9: 5 (0.0)
|   |   |   |   |   |   iphonecamneg = 10: 5 (0.0)
|   |   |   |   |   |   iphonecamneg = 11: 5 (0.0)
|   |   |   |   |   |   iphonecamneg = 15: 5 (0.0)
|   |   |   |   |   |   iphonecamneg = 18: 5 (0.0)
|   |   |   |   |   |   iphonecamneg = 19: 5 (0.0)
|   |   |   |   |   |   iphonecamneg = 20: 5 (0.0)
|   |   |   |   |   |   iphonecamneg = 31: 5 (0.0)
|   |   |   |   |   iphoneperpos = 6: 1 (2.0/1.0)
|   |   |   |   |   iphoneperpos = 7: 4 (1.0)
|   |   |   |   |   iphoneperpos = 8: 5 (0.0)
|   |   |   |   |   iphoneperpos = 9: 5 (9.0/2.0)
|   |   |   |   |   iphoneperpos = 10: 5 (10.0/4.0)
|   |   |   |   |   iphoneperpos = 11: 3 (3.0/2.0)
|   |   |   |   |   iphoneperpos = 12: 3 (3.0/2.0)
|   |   |   |   |   iphoneperpos = 13: 0 (1.0)
|   |   |   |   |   iphoneperpos = 14: 4 (1.0)
|   |   |   |   |   iphoneperpos = 15: 5 (0.0)
|   |   |   |   |   iphoneperpos = 16: 5 (0.0)
|   |   |   |   |   iphoneperpos = 17: 5 (0.0)
|   |   |   |   |   iphoneperpos = 18: 5 (0.0)
|   |   |   |   |   iphoneperpos = 21: 5 (0.0)
|   |   |   |   |   iphoneperpos = 24: 5 (0.0)
|   |   |   |   |   iphoneperpos = 27: 5 (0.0)
|   |   |   |   |   iphoneperpos = 31: 5 (0.0)
|   |   |   |   |   iphoneperpos = 32: 5 (0.0)
|   |   |   |   |   iphoneperpos = 46: 5 (0.0)
|   |   |   |   iphonedisunc = 4: 5 (54.0/22.0)
|   |   |   |   iphonedisunc = 5
|   |   |   |   |   iphonecamunc = 0: 5 (18.0/5.0)
|   |   |   |   |   iphonecamunc = 1: 4 (3.0/1.0)
|   |   |   |   |   iphonecamunc = 2: 4 (5.0/1.0)
|   |   |   |   |   iphonecamunc = 3: 5 (1.0)
|   |   |   |   |   iphonecamunc = 4: 5 (1.0)
|   |   |   |   |   iphonecamunc = 5: 5 (0.0)
|   |   |   |   |   iphonecamunc = 6: 4 (1.0)
|   |   |   |   |   iphonecamunc = 7: 5 (0.0)
|   |   |   |   |   iphonecamunc = 8: 5 (0.0)
|   |   |   |   |   iphonecamunc = 9: 5 (0.0)
|   |   |   |   |   iphonecamunc = 10: 5 (0.0)
|   |   |   |   |   iphonecamunc = 11: 5 (0.0)
|   |   |   |   |   iphonecamunc = 13: 5 (0.0)
|   |   |   |   |   iphonecamunc = 15: 5 (0.0)
|   |   |   |   |   iphonecamunc = 16: 5 (0.0)
|   |   |   |   |   iphonecamunc = 17: 5 (0.0)
|   |   |   |   |   iphonecamunc = 18: 5 (0.0)
|   |   |   |   |   iphonecamunc = 19: 5 (0.0)
|   |   |   |   |   iphonecamunc = 22: 5 (0.0)
|   |   |   |   |   iphonecamunc = 24: 5 (0.0)
|   |   |   |   |   iphonecamunc = 45: 5 (0.0)
|   |   |   |   iphonedisunc = 6
|   |   |   |   |   iphonecamunc = 0: 5 (9.0/2.0)
|   |   |   |   |   iphonecamunc = 1: 4 (6.0/1.0)
|   |   |   |   |   iphonecamunc = 2: 4 (3.0/1.0)
|   |   |   |   |   iphonecamunc = 3: 5 (1.0)
|   |   |   |   |   iphonecamunc = 4: 4 (0.0)
|   |   |   |   |   iphonecamunc = 5: 4 (0.0)
|   |   |   |   |   iphonecamunc = 6: 4 (1.0)
|   |   |   |   |   iphonecamunc = 7: 4 (0.0)
|   |   |   |   |   iphonecamunc = 8: 4 (0.0)
|   |   |   |   |   iphonecamunc = 9: 4 (0.0)
|   |   |   |   |   iphonecamunc = 10: 4 (0.0)
|   |   |   |   |   iphonecamunc = 11: 4 (0.0)
|   |   |   |   |   iphonecamunc = 13: 4 (0.0)
|   |   |   |   |   iphonecamunc = 15: 4 (0.0)
|   |   |   |   |   iphonecamunc = 16: 4 (0.0)
|   |   |   |   |   iphonecamunc = 17: 4 (0.0)
|   |   |   |   |   iphonecamunc = 18: 4 (0.0)
|   |   |   |   |   iphonecamunc = 19: 4 (1.0)
|   |   |   |   |   iphonecamunc = 22: 4 (0.0)
|   |   |   |   |   iphonecamunc = 24: 4 (0.0)
|   |   |   |   |   iphonecamunc = 45: 4 (0.0)
|   |   |   |   iphonedisunc = 7
|   |   |   |   |   iphonedisneg = 0: 0 (1.0)
|   |   |   |   |   iphonedisneg = 1: 2 (2.0/1.0)
|   |   |   |   |   iphonedisneg = 2: 5 (1.0)
|   |   |   |   |   iphonedisneg = 3: 5 (0.0)
|   |   |   |   |   iphonedisneg = 4: 5 (1.0)
|   |   |   |   |   iphonedisneg = 5: 5 (2.0)
|   |   |   |   |   iphonedisneg = 6: 5 (0.0)
|   |   |   |   |   iphonedisneg = 7: 4 (1.0)
|   |   |   |   |   iphonedisneg = 8: 5 (0.0)
|   |   |   |   |   iphonedisneg = 9: 4 (2.0)
|   |   |   |   |   iphonedisneg = 10: 5 (0.0)
|   |   |   |   |   iphonedisneg = 11: 5 (0.0)
|   |   |   |   |   iphonedisneg = 12: 5 (0.0)
|   |   |   |   |   iphonedisneg = 13: 5 (0.0)
|   |   |   |   |   iphonedisneg = 14: 5 (0.0)
|   |   |   |   |   iphonedisneg = 15: 5 (0.0)
|   |   |   |   |   iphonedisneg = 17: 5 (0.0)
|   |   |   |   |   iphonedisneg = 18: 5 (0.0)
|   |   |   |   |   iphonedisneg = 28: 5 (0.0)
|   |   |   |   |   iphonedisneg = 31: 5 (0.0)
|   |   |   |   |   iphonedisneg = 44: 4 (1.0)
|   |   |   |   |   iphonedisneg = 48: 5 (0.0)
|   |   |   |   |   iphonedisneg = 56: 5 (0.0)
|   |   |   |   |   iphonedisneg = 120: 5 (0.0)
|   |   |   |   iphonedisunc = 8
|   |   |   |   |   iphoneperneg = 0: 5 (3.0/1.0)
|   |   |   |   |   iphoneperneg = 1: 5 (3.0)
|   |   |   |   |   iphoneperneg = 2: 1 (1.0)
|   |   |   |   |   iphoneperneg = 3: 5 (0.0)
|   |   |   |   |   iphoneperneg = 4: 5 (0.0)
|   |   |   |   |   iphoneperneg = 5: 5 (0.0)
|   |   |   |   |   iphoneperneg = 6: 4 (1.0)
|   |   |   |   |   iphoneperneg = 7: 5 (0.0)
|   |   |   |   |   iphoneperneg = 8: 5 (0.0)
|   |   |   |   |   iphoneperneg = 9: 5 (0.0)
|   |   |   |   |   iphoneperneg = 10: 5 (0.0)
|   |   |   |   |   iphoneperneg = 11: 5 (0.0)
|   |   |   |   |   iphoneperneg = 12: 5 (0.0)
|   |   |   |   |   iphoneperneg = 13: 5 (0.0)
|   |   |   |   |   iphoneperneg = 14: 5 (0.0)
|   |   |   |   |   iphoneperneg = 15: 5 (0.0)
|   |   |   |   |   iphoneperneg = 16: 5 (0.0)
|   |   |   |   |   iphoneperneg = 19: 5 (0.0)
|   |   |   |   |   iphoneperneg = 21: 5 (0.0)
|   |   |   |   |   iphoneperneg = 27: 5 (0.0)
|   |   |   |   |   iphoneperneg = 28: 5 (0.0)
|   |   |   |   |   iphoneperneg = 33: 5 (0.0)
|   |   |   |   iphonedisunc = 9: 4 (136.0)
|   |   |   |   iphonedisunc = 10
|   |   |   |   |   iphonecamunc = 0: 5 (5.0)
|   |   |   |   |   iphonecamunc = 1: 5 (0.0)
|   |   |   |   |   iphonecamunc = 2: 5 (2.0)
|   |   |   |   |   iphonecamunc = 3: 5 (0.0)
|   |   |   |   |   iphonecamunc = 4: 4 (2.0)
|   |   |   |   |   iphonecamunc = 5: 5 (0.0)
|   |   |   |   |   iphonecamunc = 6: 5 (0.0)
|   |   |   |   |   iphonecamunc = 7: 5 (0.0)
|   |   |   |   |   iphonecamunc = 8: 5 (0.0)
|   |   |   |   |   iphonecamunc = 9: 5 (0.0)
|   |   |   |   |   iphonecamunc = 10: 5 (0.0)
|   |   |   |   |   iphonecamunc = 11: 5 (0.0)
|   |   |   |   |   iphonecamunc = 13: 5 (0.0)
|   |   |   |   |   iphonecamunc = 15: 5 (0.0)
|   |   |   |   |   iphonecamunc = 16: 5 (0.0)
|   |   |   |   |   iphonecamunc = 17: 5 (0.0)
|   |   |   |   |   iphonecamunc = 18: 5 (0.0)
|   |   |   |   |   iphonecamunc = 19: 5 (0.0)
|   |   |   |   |   iphonecamunc = 22: 4 (1.0)
|   |   |   |   |   iphonecamunc = 24: 5 (0.0)
|   |   |   |   |   iphonecamunc = 45: 5 (1.0)
|   |   |   |   iphonedisunc = 11: 4 (1.0)
|   |   |   |   iphonedisunc = 12: 5 (5.0/2.0)
|   |   |   |   iphonedisunc = 13: 5 (1.0)
|   |   |   |   iphonedisunc = 14: 4 (1.0)
|   |   |   |   iphonedisunc = 15: 4 (1.0)
|   |   |   |   iphonedisunc = 16: 1 (2.0/1.0)
|   |   |   |   iphonedisunc = 17: 5 (0.0)
|   |   |   |   iphonedisunc = 19: 5 (1.0)
|   |   |   |   iphonedisunc = 20: 4 (1.0)
|   |   |   |   iphonedisunc = 21: 5 (52.0/14.0)
|   |   |   |   iphonedisunc = 22: 4 (1.0)
|   |   |   |   iphonedisunc = 24: 4 (1.0)
|   |   |   |   iphonedisunc = 42: 5 (0.0)
|   |   |   |   iphonedisunc = 48: 5 (1.0)
|   |   |   |   iphonedisunc = 56: 5 (1.0)
|   |   |   |   iphonedisunc = 77: 4 (1.0)
|   |   |   ios = 1
|   |   |   |   iphone = 0: 0 (130.0)
|   |   |   |   iphone = 1
|   |   |   |   |   iosperpos = 0
|   |   |   |   |   |   iphonedispos = 0: 5 (78.0/18.0)
|   |   |   |   |   |   iphonedispos = 1: 3 (10.0/1.0)
|   |   |   |   |   |   iphonedispos = 2: 5 (0.0)
|   |   |   |   |   |   iphonedispos = 3: 5 (1.0)
|   |   |   |   |   |   iphonedispos = 4: 5 (1.0)
|   |   |   |   |   |   iphonedispos = 5: 5 (0.0)
|   |   |   |   |   |   iphonedispos = 6: 5 (0.0)
|   |   |   |   |   |   iphonedispos = 7: 5 (0.0)
|   |   |   |   |   |   iphonedispos = 8: 5 (0.0)
|   |   |   |   |   |   iphonedispos = 9: 5 (0.0)
|   |   |   |   |   |   iphonedispos = 10: 5 (0.0)
|   |   |   |   |   |   iphonedispos = 11: 5 (0.0)
|   |   |   |   |   |   iphonedispos = 12: 5 (0.0)
|   |   |   |   |   |   iphonedispos = 13: 5 (0.0)
|   |   |   |   |   |   iphonedispos = 14: 5 (0.0)
|   |   |   |   |   |   iphonedispos = 15: 5 (0.0)
|   |   |   |   |   |   iphonedispos = 16: 5 (0.0)
|   |   |   |   |   |   iphonedispos = 17: 5 (0.0)
|   |   |   |   |   |   iphonedispos = 18: 5 (0.0)
|   |   |   |   |   |   iphonedispos = 19: 5 (0.0)
|   |   |   |   |   |   iphonedispos = 20: 5 (0.0)
|   |   |   |   |   |   iphonedispos = 22: 5 (0.0)
|   |   |   |   |   |   iphonedispos = 24: 5 (0.0)
|   |   |   |   |   |   iphonedispos = 25: 5 (0.0)
|   |   |   |   |   |   iphonedispos = 27: 5 (0.0)
|   |   |   |   |   |   iphonedispos = 28: 5 (0.0)
|   |   |   |   |   |   iphonedispos = 29: 5 (0.0)
|   |   |   |   |   |   iphonedispos = 31: 5 (0.0)
|   |   |   |   |   |   iphonedispos = 35: 5 (0.0)
|   |   |   |   |   |   iphonedispos = 49: 5 (0.0)
|   |   |   |   |   |   iphonedispos = 51: 5 (0.0)
|   |   |   |   |   |   iphonedispos = 66: 5 (0.0)
|   |   |   |   |   iosperpos = 1: 5 (19.0/7.0)
|   |   |   |   |   iosperpos = 2: 5 (50.0/11.0)
|   |   |   |   |   iosperpos = 3: 5 (1.0)
|   |   |   |   |   iosperpos = 4: 5 (0.0)
|   |   |   |   |   iosperpos = 5: 5 (78.0/16.0)
|   |   |   |   |   iosperpos = 6: 5 (0.0)
|   |   |   |   |   iosperpos = 9: 5 (0.0)
|   |   |   |   |   iosperpos = 10: 5 (0.0)
|   |   |   |   |   iosperpos = 12: 5 (0.0)
|   |   |   |   |   iosperpos = 16: 5 (0.0)
|   |   |   |   |   iosperpos = 26: 5 (0.0)
|   |   |   |   iphone = 2
|   |   |   |   |   iphonedisneg = 0: 5 (16.0/5.0)
|   |   |   |   |   iphonedisneg = 1: 0 (5.0/2.0)
|   |   |   |   |   iphonedisneg = 2: 4 (2.0/1.0)
|   |   |   |   |   iphonedisneg = 3: 5 (0.0)
|   |   |   |   |   iphonedisneg = 4: 5 (1.0)
|   |   |   |   |   iphonedisneg = 5: 5 (0.0)
|   |   |   |   |   iphonedisneg = 6: 5 (0.0)
|   |   |   |   |   iphonedisneg = 7: 5 (0.0)
|   |   |   |   |   iphonedisneg = 8: 5 (0.0)
|   |   |   |   |   iphonedisneg = 9: 5 (0.0)
|   |   |   |   |   iphonedisneg = 10: 5 (0.0)
|   |   |   |   |   iphonedisneg = 11: 5 (0.0)
|   |   |   |   |   iphonedisneg = 12: 5 (0.0)
|   |   |   |   |   iphonedisneg = 13: 5 (0.0)
|   |   |   |   |   iphonedisneg = 14: 5 (0.0)
|   |   |   |   |   iphonedisneg = 15: 5 (0.0)
|   |   |   |   |   iphonedisneg = 17: 5 (0.0)
|   |   |   |   |   iphonedisneg = 18: 5 (0.0)
|   |   |   |   |   iphonedisneg = 28: 5 (0.0)
|   |   |   |   |   iphonedisneg = 31: 5 (0.0)
|   |   |   |   |   iphonedisneg = 44: 5 (0.0)
|   |   |   |   |   iphonedisneg = 48: 5 (0.0)
|   |   |   |   |   iphonedisneg = 56: 5 (0.0)
|   |   |   |   |   iphonedisneg = 120: 5 (0.0)
|   |   |   |   iphone = 3: 5 (4.0/1.0)
|   |   |   |   iphone = 4: 5 (1.0)
|   |   |   |   iphone = 5: 0 (1.0)
|   |   |   |   iphone = 6: 5 (1.0)
|   |   |   |   iphone = 7: 5 (0.0)
|   |   |   |   iphone = 8: 5 (0.0)
|   |   |   |   iphone = 9: 5 (0.0)
|   |   |   |   iphone = 10: 5 (0.0)
|   |   |   |   iphone = 11: 5 (0.0)
|   |   |   |   iphone = 12: 5 (0.0)
|   |   |   |   iphone = 13: 5 (0.0)
|   |   |   |   iphone = 14: 5 (0.0)
|   |   |   |   iphone = 16: 5 (0.0)
|   |   |   |   iphone = 18: 5 (0.0)
|   |   |   |   iphone = 19: 5 (0.0)
|   |   |   |   iphone = 20: 5 (0.0)
|   |   |   |   iphone = 21: 5 (0.0)
|   |   |   |   iphone = 25: 5 (0.0)
|   |   |   |   iphone = 26: 5 (0.0)
|   |   |   |   iphone = 37: 5 (0.0)
|   |   |   |   iphone = 38: 5 (0.0)
|   |   |   |   iphone = 40: 5 (0.0)
|   |   |   |   iphone = 41: 5 (0.0)
|   |   |   |   iphone = 46: 5 (0.0)
|   |   |   ios = 2
|   |   |   |   iphone = 0: 0 (8.0)
|   |   |   |   iphone = 1: 5 (1.0)
|   |   |   |   iphone = 2
|   |   |   |   |   iphoneperpos = 0: 5 (5.0/1.0)
|   |   |   |   |   iphoneperpos = 1: 5 (0.0)
|   |   |   |   |   iphoneperpos = 2: 5 (0.0)
|   |   |   |   |   iphoneperpos = 3: 5 (0.0)
|   |   |   |   |   iphoneperpos = 4: 5 (1.0)
|   |   |   |   |   iphoneperpos = 5: 4 (1.0)
|   |   |   |   |   iphoneperpos = 6: 5 (0.0)
|   |   |   |   |   iphoneperpos = 7: 4 (2.0)
|   |   |   |   |   iphoneperpos = 8: 5 (0.0)
|   |   |   |   |   iphoneperpos = 9: 5 (0.0)
|   |   |   |   |   iphoneperpos = 10: 5 (0.0)
|   |   |   |   |   iphoneperpos = 11: 5 (0.0)
|   |   |   |   |   iphoneperpos = 12: 5 (0.0)
|   |   |   |   |   iphoneperpos = 13: 5 (0.0)
|   |   |   |   |   iphoneperpos = 14: 5 (0.0)
|   |   |   |   |   iphoneperpos = 15: 5 (0.0)
|   |   |   |   |   iphoneperpos = 16: 5 (0.0)
|   |   |   |   |   iphoneperpos = 17: 5 (0.0)
|   |   |   |   |   iphoneperpos = 18: 5 (0.0)
|   |   |   |   |   iphoneperpos = 21: 5 (0.0)
|   |   |   |   |   iphoneperpos = 24: 5 (0.0)
|   |   |   |   |   iphoneperpos = 27: 5 (0.0)
|   |   |   |   |   iphoneperpos = 31: 5 (0.0)
|   |   |   |   |   iphoneperpos = 32: 5 (0.0)
|   |   |   |   |   iphoneperpos = 46: 5 (0.0)
|   |   |   |   iphone = 3: 0 (0.0)
|   |   |   |   iphone = 4: 0 (0.0)
|   |   |   |   iphone = 5: 0 (0.0)
|   |   |   |   iphone = 6: 0 (0.0)
|   |   |   |   iphone = 7: 0 (0.0)
|   |   |   |   iphone = 8: 0 (0.0)
|   |   |   |   iphone = 9: 0 (0.0)
|   |   |   |   iphone = 10: 0 (0.0)
|   |   |   |   iphone = 11: 0 (0.0)
|   |   |   |   iphone = 12: 0 (0.0)
|   |   |   |   iphone = 13: 0 (0.0)
|   |   |   |   iphone = 14: 0 (0.0)
|   |   |   |   iphone = 16: 0 (0.0)
|   |   |   |   iphone = 18: 0 (0.0)
|   |   |   |   iphone = 19: 4 (1.0)
|   |   |   |   iphone = 20: 0 (0.0)
|   |   |   |   iphone = 21: 0 (0.0)
|   |   |   |   iphone = 25: 0 (0.0)
|   |   |   |   iphone = 26: 0 (0.0)
|   |   |   |   iphone = 37: 0 (0.0)
|   |   |   |   iphone = 38: 0 (0.0)
|   |   |   |   iphone = 40: 0 (0.0)
|   |   |   |   iphone = 41: 0 (0.0)
|   |   |   |   iphone = 46: 0 (0.0)
|   |   |   ios = 3: 5 (3.0/1.0)
|   |   |   ios = 4: 5 (1.0)
|   |   |   ios = 6: 4 (246.0)
|   |   htcphone = 1
|   |   |   iphone = 0: 0 (399.0)
|   |   |   iphone = 1
|   |   |   |   iphonecampos = 0
|   |   |   |   |   iphonedispos = 0: 5 (141.0/37.0)
|   |   |   |   |   iphonedispos = 1
|   |   |   |   |   |   iphonedisneg = 0
|   |   |   |   |   |   |   iphoneperpos = 0: 3 (3.0)
|   |   |   |   |   |   |   iphoneperpos = 1: 0 (2.0)
|   |   |   |   |   |   |   iphoneperpos = 2: 3 (0.0)
|   |   |   |   |   |   |   iphoneperpos = 3: 3 (0.0)
|   |   |   |   |   |   |   iphoneperpos = 4: 3 (0.0)
|   |   |   |   |   |   |   iphoneperpos = 5: 3 (0.0)
|   |   |   |   |   |   |   iphoneperpos = 6: 3 (0.0)
|   |   |   |   |   |   |   iphoneperpos = 7: 3 (0.0)
|   |   |   |   |   |   |   iphoneperpos = 8: 3 (0.0)
|   |   |   |   |   |   |   iphoneperpos = 9: 3 (0.0)
|   |   |   |   |   |   |   iphoneperpos = 10: 3 (0.0)
|   |   |   |   |   |   |   iphoneperpos = 11: 3 (0.0)
|   |   |   |   |   |   |   iphoneperpos = 12: 3 (0.0)
|   |   |   |   |   |   |   iphoneperpos = 13: 3 (0.0)
|   |   |   |   |   |   |   iphoneperpos = 14: 3 (0.0)
|   |   |   |   |   |   |   iphoneperpos = 15: 3 (0.0)
|   |   |   |   |   |   |   iphoneperpos = 16: 3 (0.0)
|   |   |   |   |   |   |   iphoneperpos = 17: 3 (0.0)
|   |   |   |   |   |   |   iphoneperpos = 18: 3 (0.0)
|   |   |   |   |   |   |   iphoneperpos = 21: 3 (0.0)
|   |   |   |   |   |   |   iphoneperpos = 24: 3 (0.0)
|   |   |   |   |   |   |   iphoneperpos = 27: 3 (0.0)
|   |   |   |   |   |   |   iphoneperpos = 31: 3 (0.0)
|   |   |   |   |   |   |   iphoneperpos = 32: 3 (0.0)
|   |   |   |   |   |   |   iphoneperpos = 46: 3 (0.0)
|   |   |   |   |   |   iphonedisneg = 1
|   |   |   |   |   |   |   iphonedisunc = 0: 1 (2.0/1.0)
|   |   |   |   |   |   |   iphonedisunc = 1: 4 (2.0)
|   |   |   |   |   |   |   iphonedisunc = 2: 4 (0.0)
|   |   |   |   |   |   |   iphonedisunc = 3: 4 (0.0)
|   |   |   |   |   |   |   iphonedisunc = 4: 4 (0.0)
|   |   |   |   |   |   |   iphonedisunc = 5: 4 (0.0)
|   |   |   |   |   |   |   iphonedisunc = 6: 4 (0.0)
|   |   |   |   |   |   |   iphonedisunc = 7: 4 (0.0)
|   |   |   |   |   |   |   iphonedisunc = 8: 4 (0.0)
|   |   |   |   |   |   |   iphonedisunc = 9: 4 (0.0)
|   |   |   |   |   |   |   iphonedisunc = 10: 4 (0.0)
|   |   |   |   |   |   |   iphonedisunc = 11: 4 (0.0)
|   |   |   |   |   |   |   iphonedisunc = 12: 4 (0.0)
|   |   |   |   |   |   |   iphonedisunc = 13: 4 (0.0)
|   |   |   |   |   |   |   iphonedisunc = 14: 4 (0.0)
|   |   |   |   |   |   |   iphonedisunc = 15: 4 (0.0)
|   |   |   |   |   |   |   iphonedisunc = 16: 4 (0.0)
|   |   |   |   |   |   |   iphonedisunc = 17: 4 (0.0)
|   |   |   |   |   |   |   iphonedisunc = 19: 4 (0.0)
|   |   |   |   |   |   |   iphonedisunc = 20: 4 (0.0)
|   |   |   |   |   |   |   iphonedisunc = 21: 4 (0.0)
|   |   |   |   |   |   |   iphonedisunc = 22: 4 (0.0)
|   |   |   |   |   |   |   iphonedisunc = 24: 4 (0.0)
|   |   |   |   |   |   |   iphonedisunc = 42: 4 (0.0)
|   |   |   |   |   |   |   iphonedisunc = 48: 4 (0.0)
|   |   |   |   |   |   |   iphonedisunc = 56: 4 (0.0)
|   |   |   |   |   |   |   iphonedisunc = 77: 4 (0.0)
|   |   |   |   |   |   iphonedisneg = 2: 3 (1.0)
|   |   |   |   |   |   iphonedisneg = 3: 3 (0.0)
|   |   |   |   |   |   iphonedisneg = 4: 3 (0.0)
|   |   |   |   |   |   iphonedisneg = 5: 3 (0.0)
|   |   |   |   |   |   iphonedisneg = 6: 3 (0.0)
|   |   |   |   |   |   iphonedisneg = 7: 3 (0.0)
|   |   |   |   |   |   iphonedisneg = 8: 3 (0.0)
|   |   |   |   |   |   iphonedisneg = 9: 3 (0.0)
|   |   |   |   |   |   iphonedisneg = 10: 3 (0.0)
|   |   |   |   |   |   iphonedisneg = 11: 3 (0.0)
|   |   |   |   |   |   iphonedisneg = 12: 3 (0.0)
|   |   |   |   |   |   iphonedisneg = 13: 3 (0.0)
|   |   |   |   |   |   iphonedisneg = 14: 3 (0.0)
|   |   |   |   |   |   iphonedisneg = 15: 3 (0.0)
|   |   |   |   |   |   iphonedisneg = 17: 3 (0.0)
|   |   |   |   |   |   iphonedisneg = 18: 3 (0.0)
|   |   |   |   |   |   iphonedisneg = 28: 3 (0.0)
|   |   |   |   |   |   iphonedisneg = 31: 3 (0.0)
|   |   |   |   |   |   iphonedisneg = 44: 3 (0.0)
|   |   |   |   |   |   iphonedisneg = 48: 3 (0.0)
|   |   |   |   |   |   iphonedisneg = 56: 3 (0.0)
|   |   |   |   |   |   iphonedisneg = 120: 3 (0.0)
|   |   |   |   |   iphonedispos = 2: 3 (1.0)
|   |   |   |   |   iphonedispos = 3: 5 (1.0)
|   |   |   |   |   iphonedispos = 4: 0 (1.0)
|   |   |   |   |   iphonedispos = 5: 5 (0.0)
|   |   |   |   |   iphonedispos = 6: 5 (0.0)
|   |   |   |   |   iphonedispos = 7: 5 (0.0)
|   |   |   |   |   iphonedispos = 8: 5 (0.0)
|   |   |   |   |   iphonedispos = 9: 3 (1.0)
|   |   |   |   |   iphonedispos = 10: 5 (0.0)
|   |   |   |   |   iphonedispos = 11: 5 (0.0)
|   |   |   |   |   iphonedispos = 12: 5 (0.0)
|   |   |   |   |   iphonedispos = 13: 5 (0.0)
|   |   |   |   |   iphonedispos = 14: 5 (0.0)
|   |   |   |   |   iphonedispos = 15: 5 (0.0)
|   |   |   |   |   iphonedispos = 16: 5 (0.0)
|   |   |   |   |   iphonedispos = 17: 5 (0.0)
|   |   |   |   |   iphonedispos = 18: 5 (0.0)
|   |   |   |   |   iphonedispos = 19: 5 (0.0)
|   |   |   |   |   iphonedispos = 20: 5 (0.0)
|   |   |   |   |   iphonedispos = 22: 5 (0.0)
|   |   |   |   |   iphonedispos = 24: 5 (0.0)
|   |   |   |   |   iphonedispos = 25: 5 (0.0)
|   |   |   |   |   iphonedispos = 27: 5 (0.0)
|   |   |   |   |   iphonedispos = 28: 5 (0.0)
|   |   |   |   |   iphonedispos = 29: 5 (0.0)
|   |   |   |   |   iphonedispos = 31: 5 (0.0)
|   |   |   |   |   iphonedispos = 35: 5 (0.0)
|   |   |   |   |   iphonedispos = 49: 5 (0.0)
|   |   |   |   |   iphonedispos = 51: 5 (0.0)
|   |   |   |   |   iphonedispos = 66: 5 (0.0)
|   |   |   |   iphonecampos = 1
|   |   |   |   |   iphonedisunc = 0: 0 (27.0/2.0)
|   |   |   |   |   iphonedisunc = 1
|   |   |   |   |   |   iphoneperpos = 0: 0 (2.0)
|   |   |   |   |   |   iphoneperpos = 1: 3 (3.0)
|   |   |   |   |   |   iphoneperpos = 2: 3 (0.0)
|   |   |   |   |   |   iphoneperpos = 3: 3 (0.0)
|   |   |   |   |   |   iphoneperpos = 4: 3 (0.0)
|   |   |   |   |   |   iphoneperpos = 5: 3 (0.0)
|   |   |   |   |   |   iphoneperpos = 6: 3 (0.0)
|   |   |   |   |   |   iphoneperpos = 7: 3 (0.0)
|   |   |   |   |   |   iphoneperpos = 8: 3 (0.0)
|   |   |   |   |   |   iphoneperpos = 9: 3 (0.0)
|   |   |   |   |   |   iphoneperpos = 10: 3 (0.0)
|   |   |   |   |   |   iphoneperpos = 11: 3 (0.0)
|   |   |   |   |   |   iphoneperpos = 12: 3 (0.0)
|   |   |   |   |   |   iphoneperpos = 13: 3 (0.0)
|   |   |   |   |   |   iphoneperpos = 14: 3 (0.0)
|   |   |   |   |   |   iphoneperpos = 15: 3 (0.0)
|   |   |   |   |   |   iphoneperpos = 16: 3 (0.0)
|   |   |   |   |   |   iphoneperpos = 17: 3 (0.0)
|   |   |   |   |   |   iphoneperpos = 18: 3 (0.0)
|   |   |   |   |   |   iphoneperpos = 21: 3 (0.0)
|   |   |   |   |   |   iphoneperpos = 24: 3 (0.0)
|   |   |   |   |   |   iphoneperpos = 27: 3 (0.0)
|   |   |   |   |   |   iphoneperpos = 31: 3 (0.0)
|   |   |   |   |   |   iphoneperpos = 32: 3 (0.0)
|   |   |   |   |   |   iphoneperpos = 46: 3 (0.0)
|   |   |   |   |   iphonedisunc = 2: 3 (3.0)
|   |   |   |   |   iphonedisunc = 3: 3 (4.0)
|   |   |   |   |   iphonedisunc = 4: 0 (0.0)
|   |   |   |   |   iphonedisunc = 5: 0 (0.0)
|   |   |   |   |   iphonedisunc = 6: 0 (0.0)
|   |   |   |   |   iphonedisunc = 7: 0 (0.0)
|   |   |   |   |   iphonedisunc = 8: 0 (0.0)
|   |   |   |   |   iphonedisunc = 9: 0 (0.0)
|   |   |   |   |   iphonedisunc = 10: 0 (0.0)
|   |   |   |   |   iphonedisunc = 11: 0 (0.0)
|   |   |   |   |   iphonedisunc = 12: 0 (0.0)
|   |   |   |   |   iphonedisunc = 13: 3 (1.0)
|   |   |   |   |   iphonedisunc = 14: 3 (1.0)
|   |   |   |   |   iphonedisunc = 15: 0 (0.0)
|   |   |   |   |   iphonedisunc = 16: 0 (0.0)
|   |   |   |   |   iphonedisunc = 17: 0 (0.0)
|   |   |   |   |   iphonedisunc = 19: 0 (0.0)
|   |   |   |   |   iphonedisunc = 20: 0 (0.0)
|   |   |   |   |   iphonedisunc = 21: 0 (0.0)
|   |   |   |   |   iphonedisunc = 22: 0 (0.0)
|   |   |   |   |   iphonedisunc = 24: 0 (0.0)
|   |   |   |   |   iphonedisunc = 42: 0 (0.0)
|   |   |   |   |   iphonedisunc = 48: 0 (0.0)
|   |   |   |   |   iphonedisunc = 56: 0 (0.0)
|   |   |   |   |   iphonedisunc = 77: 0 (0.0)
|   |   |   |   iphonecampos = 2: 0 (7.0/1.0)
|   |   |   |   iphonecampos = 3: 0 (3.0)
|   |   |   |   iphonecampos = 4: 0 (2.0)
|   |   |   |   iphonecampos = 5: 5 (0.0)
|   |   |   |   iphonecampos = 6: 5 (0.0)
|   |   |   |   iphonecampos = 7: 5 (0.0)
|   |   |   |   iphonecampos = 8: 3 (1.0)
|   |   |   |   iphonecampos = 9: 5 (0.0)
|   |   |   |   iphonecampos = 10: 5 (0.0)
|   |   |   |   iphonecampos = 11: 5 (0.0)
|   |   |   |   iphonecampos = 12: 5 (0.0)
|   |   |   |   iphonecampos = 13: 5 (0.0)
|   |   |   |   iphonecampos = 14: 5 (0.0)
|   |   |   |   iphonecampos = 15: 5 (0.0)
|   |   |   |   iphonecampos = 16: 5 (0.0)
|   |   |   |   iphonecampos = 17: 5 (0.0)
|   |   |   |   iphonecampos = 18: 5 (0.0)
|   |   |   |   iphonecampos = 19: 5 (0.0)
|   |   |   |   iphonecampos = 20: 5 (0.0)
|   |   |   |   iphonecampos = 23: 5 (0.0)
|   |   |   |   iphonecampos = 24: 5 (0.0)
|   |   |   |   iphonecampos = 26: 5 (0.0)
|   |   |   |   iphonecampos = 29: 5 (0.0)
|   |   |   |   iphonecampos = 39: 5 (0.0)
|   |   |   |   iphonecampos = 71: 5 (0.0)
|   |   |   |   iphonecampos = 83: 5 (0.0)
|   |   |   |   iphonecampos = 95: 5 (0.0)
|   |   |   |   iphonecampos = 156: 5 (0.0)
|   |   |   iphone = 2
|   |   |   |   iphonedisneg = 0: 5 (15.0/6.0)
|   |   |   |   iphonedisneg = 1: 0 (3.0/1.0)
|   |   |   |   iphonedisneg = 2: 4 (1.0)
|   |   |   |   iphonedisneg = 3: 3 (1.0)
|   |   |   |   iphonedisneg = 4: 5 (1.0)
|   |   |   |   iphonedisneg = 5: 4 (2.0/1.0)
|   |   |   |   iphonedisneg = 6: 3 (2.0/1.0)
|   |   |   |   iphonedisneg = 7: 5 (0.0)
|   |   |   |   iphonedisneg = 8: 0 (2.0)
|   |   |   |   iphonedisneg = 9: 5 (0.0)
|   |   |   |   iphonedisneg = 10: 5 (0.0)
|   |   |   |   iphonedisneg = 11: 5 (0.0)
|   |   |   |   iphonedisneg = 12: 5 (0.0)
|   |   |   |   iphonedisneg = 13: 5 (0.0)
|   |   |   |   iphonedisneg = 14: 5 (0.0)
|   |   |   |   iphonedisneg = 15: 5 (0.0)
|   |   |   |   iphonedisneg = 17: 5 (0.0)
|   |   |   |   iphonedisneg = 18: 5 (0.0)
|   |   |   |   iphonedisneg = 28: 5 (0.0)
|   |   |   |   iphonedisneg = 31: 5 (0.0)
|   |   |   |   iphonedisneg = 44: 5 (0.0)
|   |   |   |   iphonedisneg = 48: 5 (0.0)
|   |   |   |   iphonedisneg = 56: 5 (0.0)
|   |   |   |   iphonedisneg = 120: 5 (0.0)
|   |   |   iphone = 3: 4 (5.0/2.0)
|   |   |   iphone = 4: 4 (5.0/3.0)
|   |   |   iphone = 5: 4 (1.0)
|   |   |   iphone = 6: 4 (1.0)
|   |   |   iphone = 7: 3 (10.0)
|   |   |   iphone = 8: 4 (1.0)
|   |   |   iphone = 9: 0 (0.0)
|   |   |   iphone = 10: 0 (0.0)
|   |   |   iphone = 11: 0 (0.0)
|   |   |   iphone = 12: 0 (0.0)
|   |   |   iphone = 13: 0 (0.0)
|   |   |   iphone = 14: 0 (0.0)
|   |   |   iphone = 16: 0 (0.0)
|   |   |   iphone = 18: 0 (0.0)
|   |   |   iphone = 19: 0 (0.0)
|   |   |   iphone = 20: 0 (0.0)
|   |   |   iphone = 21: 0 (0.0)
|   |   |   iphone = 25: 0 (0.0)
|   |   |   iphone = 26: 0 (0.0)
|   |   |   iphone = 37: 0 (0.0)
|   |   |   iphone = 38: 0 (0.0)
|   |   |   iphone = 40: 0 (0.0)
|   |   |   iphone = 41: 4 (1.0)
|   |   |   iphone = 46: 0 (0.0)
|   |   htcphone = 2
|   |   |   iphoneperneg = 0: 0 (55.0/3.0)
|   |   |   iphoneperneg = 1: 4 (5.0/2.0)
|   |   |   iphoneperneg = 2: 4 (3.0/1.0)
|   |   |   iphoneperneg = 3: 0 (0.0)
|   |   |   iphoneperneg = 4: 3 (2.0)
|   |   |   iphoneperneg = 5: 0 (0.0)
|   |   |   iphoneperneg = 6: 4 (1.0)
|   |   |   iphoneperneg = 7: 0 (0.0)
|   |   |   iphoneperneg = 8: 4 (2.0/1.0)
|   |   |   iphoneperneg = 9: 0 (0.0)
|   |   |   iphoneperneg = 10: 0 (0.0)
|   |   |   iphoneperneg = 11: 0 (0.0)
|   |   |   iphoneperneg = 12: 0 (0.0)
|   |   |   iphoneperneg = 13: 0 (0.0)
|   |   |   iphoneperneg = 14: 0 (0.0)
|   |   |   iphoneperneg = 15: 0 (0.0)
|   |   |   iphoneperneg = 16: 0 (0.0)
|   |   |   iphoneperneg = 19: 0 (0.0)
|   |   |   iphoneperneg = 21: 0 (0.0)
|   |   |   iphoneperneg = 27: 0 (0.0)
|   |   |   iphoneperneg = 28: 0 (0.0)
|   |   |   iphoneperneg = 33: 0 (0.0)
|   |   htcphone = 3
|   |   |   iphone = 0: 0 (3.0)
|   |   |   iphone = 1: 0 (2.0)
|   |   |   iphone = 2: 0 (0.0)
|   |   |   iphone = 3: 5 (1.0)
|   |   |   iphone = 4: 4 (1.0)
|   |   |   iphone = 5: 0 (0.0)
|   |   |   iphone = 6: 0 (0.0)
|   |   |   iphone = 7: 0 (0.0)
|   |   |   iphone = 8: 0 (0.0)
|   |   |   iphone = 9: 4 (1.0)
|   |   |   iphone = 10: 0 (0.0)
|   |   |   iphone = 11: 0 (0.0)
|   |   |   iphone = 12: 0 (0.0)
|   |   |   iphone = 13: 0 (0.0)
|   |   |   iphone = 14: 0 (0.0)
|   |   |   iphone = 16: 0 (0.0)
|   |   |   iphone = 18: 0 (0.0)
|   |   |   iphone = 19: 0 (0.0)
|   |   |   iphone = 20: 0 (0.0)
|   |   |   iphone = 21: 0 (0.0)
|   |   |   iphone = 25: 0 (0.0)
|   |   |   iphone = 26: 0 (0.0)
|   |   |   iphone = 37: 0 (0.0)
|   |   |   iphone = 38: 0 (0.0)
|   |   |   iphone = 40: 0 (0.0)
|   |   |   iphone = 41: 0 (0.0)
|   |   |   iphone = 46: 0 (0.0)
|   |   htcphone = 4
|   |   |   iphonedisunc = 0: 0 (4.0)
|   |   |   iphonedisunc = 1: 0 (0.0)
|   |   |   iphonedisunc = 2: 3 (2.0)
|   |   |   iphonedisunc = 3: 0 (0.0)
|   |   |   iphonedisunc = 4: 0 (0.0)
|   |   |   iphonedisunc = 5: 0 (0.0)
|   |   |   iphonedisunc = 6: 0 (0.0)
|   |   |   iphonedisunc = 7: 0 (0.0)
|   |   |   iphonedisunc = 8: 0 (0.0)
|   |   |   iphonedisunc = 9: 0 (0.0)
|   |   |   iphonedisunc = 10: 0 (0.0)
|   |   |   iphonedisunc = 11: 0 (0.0)
|   |   |   iphonedisunc = 12: 0 (0.0)
|   |   |   iphonedisunc = 13: 0 (0.0)
|   |   |   iphonedisunc = 14: 0 (0.0)
|   |   |   iphonedisunc = 15: 0 (0.0)
|   |   |   iphonedisunc = 16: 0 (0.0)
|   |   |   iphonedisunc = 17: 0 (0.0)
|   |   |   iphonedisunc = 19: 0 (0.0)
|   |   |   iphonedisunc = 20: 0 (0.0)
|   |   |   iphonedisunc = 21: 0 (0.0)
|   |   |   iphonedisunc = 22: 0 (0.0)
|   |   |   iphonedisunc = 24: 0 (0.0)
|   |   |   iphonedisunc = 42: 0 (0.0)
|   |   |   iphonedisunc = 48: 0 (0.0)
|   |   |   iphonedisunc = 56: 0 (0.0)
|   |   |   iphonedisunc = 77: 0 (0.0)
|   |   htcphone = 5: 0 (4.0/2.0)
|   |   htcphone = 11: 0 (2.0/1.0)
|   |   htcphone = 18: 5 (0.0)
|   |   htcphone = 479: 0 (1.0)
|   samsunggalaxy = 1
|   |   iphoneperpos = 0
|   |   |   htcphone = 0
|   |   |   |   iphone = 0: 0 (241.0/19.0)
|   |   |   |   iphone = 1
|   |   |   |   |   iphonecamunc = 0: 3 (37.0/1.0)
|   |   |   |   |   iphonecamunc = 1
|   |   |   |   |   |   iphonedisunc = 0: 0 (4.0)
|   |   |   |   |   |   iphonedisunc = 1: 3 (2.0/1.0)
|   |   |   |   |   |   iphonedisunc = 2: 0 (0.0)
|   |   |   |   |   |   iphonedisunc = 3: 0 (0.0)
|   |   |   |   |   |   iphonedisunc = 4: 0 (0.0)
|   |   |   |   |   |   iphonedisunc = 5: 0 (0.0)
|   |   |   |   |   |   iphonedisunc = 6: 0 (0.0)
|   |   |   |   |   |   iphonedisunc = 7: 0 (0.0)
|   |   |   |   |   |   iphonedisunc = 8: 0 (0.0)
|   |   |   |   |   |   iphonedisunc = 9: 0 (0.0)
|   |   |   |   |   |   iphonedisunc = 10: 0 (0.0)
|   |   |   |   |   |   iphonedisunc = 11: 0 (0.0)
|   |   |   |   |   |   iphonedisunc = 12: 0 (0.0)
|   |   |   |   |   |   iphonedisunc = 13: 0 (0.0)
|   |   |   |   |   |   iphonedisunc = 14: 0 (0.0)
|   |   |   |   |   |   iphonedisunc = 15: 0 (0.0)
|   |   |   |   |   |   iphonedisunc = 16: 0 (0.0)
|   |   |   |   |   |   iphonedisunc = 17: 0 (0.0)
|   |   |   |   |   |   iphonedisunc = 19: 0 (0.0)
|   |   |   |   |   |   iphonedisunc = 20: 0 (0.0)
|   |   |   |   |   |   iphonedisunc = 21: 0 (0.0)
|   |   |   |   |   |   iphonedisunc = 22: 0 (0.0)
|   |   |   |   |   |   iphonedisunc = 24: 0 (0.0)
|   |   |   |   |   |   iphonedisunc = 42: 0 (0.0)
|   |   |   |   |   |   iphonedisunc = 48: 0 (0.0)
|   |   |   |   |   |   iphonedisunc = 56: 0 (0.0)
|   |   |   |   |   |   iphonedisunc = 77: 0 (0.0)
|   |   |   |   |   iphonecamunc = 2: 3 (0.0)
|   |   |   |   |   iphonecamunc = 3: 3 (0.0)
|   |   |   |   |   iphonecamunc = 4: 3 (0.0)
|   |   |   |   |   iphonecamunc = 5: 3 (0.0)
|   |   |   |   |   iphonecamunc = 6: 3 (0.0)
|   |   |   |   |   iphonecamunc = 7: 3 (0.0)
|   |   |   |   |   iphonecamunc = 8: 3 (0.0)
|   |   |   |   |   iphonecamunc = 9: 3 (0.0)
|   |   |   |   |   iphonecamunc = 10: 3 (0.0)
|   |   |   |   |   iphonecamunc = 11: 3 (0.0)
|   |   |   |   |   iphonecamunc = 13: 3 (0.0)
|   |   |   |   |   iphonecamunc = 15: 3 (0.0)
|   |   |   |   |   iphonecamunc = 16: 3 (0.0)
|   |   |   |   |   iphonecamunc = 17: 3 (0.0)
|   |   |   |   |   iphonecamunc = 18: 3 (0.0)
|   |   |   |   |   iphonecamunc = 19: 3 (0.0)
|   |   |   |   |   iphonecamunc = 22: 3 (0.0)
|   |   |   |   |   iphonecamunc = 24: 3 (0.0)
|   |   |   |   |   iphonecamunc = 45: 3 (0.0)
|   |   |   |   iphone = 2
|   |   |   |   |   iphonecamunc = 0
|   |   |   |   |   |   iphonedispos = 0: 3 (164.0/1.0)
|   |   |   |   |   |   iphonedispos = 1
|   |   |   |   |   |   |   iphonedisunc = 0: 5 (10.0/5.0)
|   |   |   |   |   |   |   iphonedisunc = 1: 3 (2.0)
|   |   |   |   |   |   |   iphonedisunc = 2: 5 (0.0)
|   |   |   |   |   |   |   iphonedisunc = 3: 5 (0.0)
|   |   |   |   |   |   |   iphonedisunc = 4: 5 (0.0)
|   |   |   |   |   |   |   iphonedisunc = 5: 5 (0.0)
|   |   |   |   |   |   |   iphonedisunc = 6: 5 (0.0)
|   |   |   |   |   |   |   iphonedisunc = 7: 5 (0.0)
|   |   |   |   |   |   |   iphonedisunc = 8: 5 (0.0)
|   |   |   |   |   |   |   iphonedisunc = 9: 5 (0.0)
|   |   |   |   |   |   |   iphonedisunc = 10: 5 (0.0)
|   |   |   |   |   |   |   iphonedisunc = 11: 5 (0.0)
|   |   |   |   |   |   |   iphonedisunc = 12: 5 (0.0)
|   |   |   |   |   |   |   iphonedisunc = 13: 5 (0.0)
|   |   |   |   |   |   |   iphonedisunc = 14: 5 (0.0)
|   |   |   |   |   |   |   iphonedisunc = 15: 5 (0.0)
|   |   |   |   |   |   |   iphonedisunc = 16: 5 (0.0)
|   |   |   |   |   |   |   iphonedisunc = 17: 5 (0.0)
|   |   |   |   |   |   |   iphonedisunc = 19: 5 (0.0)
|   |   |   |   |   |   |   iphonedisunc = 20: 5 (0.0)
|   |   |   |   |   |   |   iphonedisunc = 21: 5 (0.0)
|   |   |   |   |   |   |   iphonedisunc = 22: 5 (0.0)
|   |   |   |   |   |   |   iphonedisunc = 24: 5 (0.0)
|   |   |   |   |   |   |   iphonedisunc = 42: 5 (0.0)
|   |   |   |   |   |   |   iphonedisunc = 48: 5 (0.0)
|   |   |   |   |   |   |   iphonedisunc = 56: 5 (0.0)
|   |   |   |   |   |   |   iphonedisunc = 77: 5 (0.0)
|   |   |   |   |   |   iphonedispos = 2: 3 (0.0)
|   |   |   |   |   |   iphonedispos = 3: 3 (0.0)
|   |   |   |   |   |   iphonedispos = 4: 3 (0.0)
|   |   |   |   |   |   iphonedispos = 5: 3 (0.0)
|   |   |   |   |   |   iphonedispos = 6: 3 (0.0)
|   |   |   |   |   |   iphonedispos = 7: 3 (0.0)
|   |   |   |   |   |   iphonedispos = 8: 3 (0.0)
|   |   |   |   |   |   iphonedispos = 9: 3 (0.0)
|   |   |   |   |   |   iphonedispos = 10: 3 (0.0)
|   |   |   |   |   |   iphonedispos = 11: 3 (0.0)
|   |   |   |   |   |   iphonedispos = 12: 3 (0.0)
|   |   |   |   |   |   iphonedispos = 13: 3 (0.0)
|   |   |   |   |   |   iphonedispos = 14: 3 (0.0)
|   |   |   |   |   |   iphonedispos = 15: 3 (0.0)
|   |   |   |   |   |   iphonedispos = 16: 3 (0.0)
|   |   |   |   |   |   iphonedispos = 17: 3 (0.0)
|   |   |   |   |   |   iphonedispos = 18: 3 (0.0)
|   |   |   |   |   |   iphonedispos = 19: 3 (0.0)
|   |   |   |   |   |   iphonedispos = 20: 3 (0.0)
|   |   |   |   |   |   iphonedispos = 22: 3 (0.0)
|   |   |   |   |   |   iphonedispos = 24: 3 (0.0)
|   |   |   |   |   |   iphonedispos = 25: 3 (0.0)
|   |   |   |   |   |   iphonedispos = 27: 3 (0.0)
|   |   |   |   |   |   iphonedispos = 28: 3 (0.0)
|   |   |   |   |   |   iphonedispos = 29: 3 (0.0)
|   |   |   |   |   |   iphonedispos = 31: 3 (0.0)
|   |   |   |   |   |   iphonedispos = 35: 3 (0.0)
|   |   |   |   |   |   iphonedispos = 49: 3 (0.0)
|   |   |   |   |   |   iphonedispos = 51: 3 (0.0)
|   |   |   |   |   |   iphonedispos = 66: 3 (0.0)
|   |   |   |   |   iphonecamunc = 1: 5 (3.0/1.0)
|   |   |   |   |   iphonecamunc = 2: 0 (1.0)
|   |   |   |   |   iphonecamunc = 3: 3 (0.0)
|   |   |   |   |   iphonecamunc = 4: 3 (0.0)
|   |   |   |   |   iphonecamunc = 5: 3 (0.0)
|   |   |   |   |   iphonecamunc = 6: 3 (0.0)
|   |   |   |   |   iphonecamunc = 7: 3 (0.0)
|   |   |   |   |   iphonecamunc = 8: 3 (0.0)
|   |   |   |   |   iphonecamunc = 9: 3 (0.0)
|   |   |   |   |   iphonecamunc = 10: 3 (0.0)
|   |   |   |   |   iphonecamunc = 11: 3 (0.0)
|   |   |   |   |   iphonecamunc = 13: 3 (0.0)
|   |   |   |   |   iphonecamunc = 15: 3 (0.0)
|   |   |   |   |   iphonecamunc = 16: 3 (0.0)
|   |   |   |   |   iphonecamunc = 17: 3 (0.0)
|   |   |   |   |   iphonecamunc = 18: 3 (0.0)
|   |   |   |   |   iphonecamunc = 19: 3 (0.0)
|   |   |   |   |   iphonecamunc = 22: 3 (0.0)
|   |   |   |   |   iphonecamunc = 24: 3 (0.0)
|   |   |   |   |   iphonecamunc = 45: 3 (0.0)
|   |   |   |   iphone = 3: 0 (0.0)
|   |   |   |   iphone = 4: 0 (0.0)
|   |   |   |   iphone = 5: 0 (0.0)
|   |   |   |   iphone = 6: 0 (0.0)
|   |   |   |   iphone = 7: 0 (0.0)
|   |   |   |   iphone = 8: 0 (0.0)
|   |   |   |   iphone = 9: 0 (0.0)
|   |   |   |   iphone = 10: 0 (0.0)
|   |   |   |   iphone = 11: 0 (0.0)
|   |   |   |   iphone = 12: 0 (0.0)
|   |   |   |   iphone = 13: 0 (0.0)
|   |   |   |   iphone = 14: 0 (0.0)
|   |   |   |   iphone = 16: 0 (0.0)
|   |   |   |   iphone = 18: 0 (0.0)
|   |   |   |   iphone = 19: 0 (0.0)
|   |   |   |   iphone = 20: 0 (0.0)
|   |   |   |   iphone = 21: 0 (0.0)
|   |   |   |   iphone = 25: 0 (0.0)
|   |   |   |   iphone = 26: 0 (0.0)
|   |   |   |   iphone = 37: 0 (0.0)
|   |   |   |   iphone = 38: 0 (0.0)
|   |   |   |   iphone = 40: 0 (0.0)
|   |   |   |   iphone = 41: 0 (0.0)
|   |   |   |   iphone = 46: 0 (0.0)
|   |   |   htcphone = 1: 0 (207.0/2.0)
|   |   |   htcphone = 2: 0 (1.0)
|   |   |   htcphone = 3: 0 (0.0)
|   |   |   htcphone = 4: 0 (0.0)
|   |   |   htcphone = 5: 0 (0.0)
|   |   |   htcphone = 11: 0 (0.0)
|   |   |   htcphone = 18: 0 (0.0)
|   |   |   htcphone = 479: 0 (0.0)
|   |   iphoneperpos = 1
|   |   |   htcdisunc = 0: 5 (34.0/7.0)
|   |   |   htcdisunc = 1: 4 (7.0/3.0)
|   |   |   htcdisunc = 2: 5 (0.0)
|   |   |   htcdisunc = 3: 5 (0.0)
|   |   |   htcdisunc = 4: 5 (0.0)
|   |   |   htcdisunc = 5: 5 (0.0)
|   |   |   htcdisunc = 6: 5 (0.0)
|   |   |   htcdisunc = 7: 5 (0.0)
|   |   |   htcdisunc = 8: 5 (0.0)
|   |   |   htcdisunc = 9: 5 (0.0)
|   |   |   htcdisunc = 10: 5 (0.0)
|   |   |   htcdisunc = 11: 5 (0.0)
|   |   |   htcdisunc = 13: 5 (0.0)
|   |   |   htcdisunc = 14: 5 (0.0)
|   |   |   htcdisunc = 16: 5 (0.0)
